0.5230398	0.8078016	-0.3360773	-0.5589875	-0.020907419	-0.49053052	0.87154704	1.5211595	0.147745	0.017190076	0.61432725	0.13873553	0.5536466	1.7459024	-0.11932469	-0.0014674495
-0.17284228	0.8673481	0.42302033	0.37510762	-0.120999604	-0.46629193	0.29119283	1.174734	0.2399052	-0.98205703	-0.67919886	0.57239974	0.26380253	0.8478351	0.09288038	0.6984918
0.19465037	0.77314687	-0.13612442	0.25682068	-0.18285708	-0.27850875	0.044047773	0.06119428	0.41118324	-0.26311535	0.43242654	-0.3474279	0.3442468	-0.23858283	-0.20951822	0.25452715
0.07253017	0.095083475	-0.14776698	-0.02675521	-0.06070003	0.05177166	0.26510328	0.1320333	0.0162347	0.10554629	0.103049226	-0.008687032	0.29669827	0.26070157	0.2723026	0.020772198
-0.53740233	0.018592121	-0.628028	-0.7363639	-0.24263395	-0.6102325	-0.5981812	-0.19349039	0.15494597	-0.085019305	0.09270096	-0.4361846	-0.09249993	0.014058956	-0.6097662	0.069260105
1.4439063	0.18531704	-0.09152433	0.14254588	0.21378516	0.56844366	0.052700322	-0.48219407	0.24358247	0.9311457	1.5912721	-0.70293236	0.06374745	-0.9208539	-0.46632183	-0.7280637
-0.06683961	0.30780968	0.16026525	-0.012588143	0.018073874	-0.2743625	-0.011893445	0.48042855	-0.029204082	-0.3227042	-0.18476154	0.20615293	-0.023093775	0.34471324	-0.15746951	0.15007183
0.70012456	-0.5001666	-0.1364714	-0.73782843	0.5345922	0.43731245	-0.18780816	-0.2845697	-0.53727657	0.8318982	0.9300473	-0.2617337	-0.54342735	0.31115007	-0.42902273	-0.74109507
0.5279212	-0.10344523	0.11420565	-0.010101195	0.21399112	0.3856969	0.31152916	0.07398761	-0.23974602	0.3904862	0.4576592	0.030373363	-0.014683527	0.1281024	0.087531	-0.3360124
1.2237682	0.33681464	1.5001606	0.94534487	0.74081737	1.1421818	1.253319	1.22015	-0.43917328	-0.02341786	0.026140805	1.410547	0.3708203	0.74932486	0.90605	0.05858594
0.42319188	0.12339031	0.33986998	0.19198823	0.14306827	0.19759184	0.33047742	0.37649274	-0.03494028	0.14659515	0.15426546	0.24126244	0.07129335	0.34642753	0.026661964	-0.0588483
-0.070016526	-0.25971332	0.05529988	-0.53155196	0.2541435	-0.084747314	-0.2986787	0.3331159	-0.29132676	0.0650894	-0.0996143	0.22201969	-0.436047	0.6156073	-0.40892065	-0.19219203
0.011697467	-0.80505735	-0.7977347	-1.2810603	0.17603032	0.03978264	-0.57739556	-0.6154954	-0.45405054	0.7312105	0.40387473	-0.4368395	-0.4085819	0.32272524	-0.48379773	-0.55675066
-0.08285545	0.30114183	0.00085436867	0.16385351	-0.15571196	-0.09262581	0.34648737	0.4659092	0.15632962	-0.33628193	-0.32680586	0.28345555	0.36160034	0.28249696	0.34562427	0.29784337
-1.0192536	0.84957045	-0.60563916	-0.11344482	-0.74075	-1.0547401	-0.3319907	0.48901272	0.7168483	-1.0739979	-0.9094227	0.018586386	0.44118318	0.21840051	0.18732221	0.9184363
-0.46869937	0.022046242	-0.42380878	-0.50858676	-0.15125065	-0.48510107	-0.3530824	0.23779193	0.037474282	-0.2443448	-0.3287338	0.04032879	-0.10105135	0.4876008	-0.22782104	0.121059574
0.94130313	0.64602745	-0.5640845	0.42252854	-1.0782877	0.16741133	0.12939887	-1.0019584	1.446145	1.0097609	1.4919883	-1.1059691	0.9541895	-1.6745052	-0.07306447	-0.32696173
0.048578523	0.050452612	-0.06425961	0.20956627	-0.118711494	0.1085224	0.5008815	0.27206478	0.037855934	-0.057948984	-0.15465698	0.24643707	0.39025566	0.17746909	0.61948156	0.12107747
-0.2575741	0.13725951	-0.28679994	-0.12267399	-0.27957937	-0.32993177	-0.037874267	0.09235689	0.2531234	-0.1545561	-0.14349592	-0.10740324	0.17477831	0.08948631	0.067758344	0.12619647
-0.027433302	-0.23819731	-0.25387788	-0.5369252	0.09154608	-0.094153136	-0.32192385	0.028297266	-0.23138615	0.091883585	0.07935514	-0.08780648	-0.27826643	0.29974473	-0.3884148	-0.21729583
-0.16134545	0.1680622	-0.35485092	0.043359462	-0.32476318	-0.20395905	0.17897893	-0.096003145	0.2700645	-0.06986896	-0.02246527	-0.23293631	0.45845333	-0.18933503	0.2723633	0.175833
0.3117267	0.057921432	-0.32109642	-0.35440725	-0.045225628	-0.19533014	-0.421729	-0.33926716	0.21628895	0.5407321	0.81676936	-0.6136814	-0.24372149	-0.3248149	-0.65646106	-0.39735013
0.3658461	0.3402482	0.46101043	0.44685498	0.2036688	0.27048734	0.45330736	0.49773848	-0.058095638	-0.21904345	-0.07791877	0.40989834	0.1917868	0.216833	0.3445186	0.16438419
-0.033054035	-0.23568113	0.4739515	-0.74421054	0.69169706	-0.19211514	-0.63083386	0.91119534	-0.6465933	-0.2844903	-0.57048696	0.7431071	-1.0100749	1.2163047	-0.9436908	-0.065866545
-0.14711018	-0.056978453	0.09425097	-0.26351598	0.24524343	-0.12547235	-0.19670309	0.34359768	-0.23934709	-0.16989516	-0.07691991	0.14608568	-0.30768389	0.38916406	-0.3144308	0.02961803
-0.558227	0.2373728	-0.43903598	-0.18838628	-0.3953572	-0.4956852	-0.1882588	0.1473507	0.3102425	-0.37432745	-0.45128226	-0.032885488	0.23618057	0.14272633	0.20546275	0.38843513
0.44154432	-0.16126701	-0.09114865	-0.22060014	0.14138189	0.27421138	0.14707324	-0.26774764	-0.1074285	0.53761065	0.6025341	-0.22058953	0.043743182	-0.043686952	-0.027277911	-0.33127844
-0.10725088	-0.03318564	-0.29721394	-0.33503082	-0.04056345	-0.27884483	-0.28616938	-0.02462545	0.047687676	-0.016214978	0.21399327	-0.23361461	-0.08005536	0.03624527	-0.3864254	-0.072084494
-0.45868888	0.3477704	2.229362	-0.73268855	1.7845081	-0.5421803	-1.5008147	2.4791927	-1.628501	-1.7144319	-1.9857244	2.4068024	-1.9309118	2.3704705	-1.8189692	0.65523183
-0.45949548	0.47012556	-0.10122864	-0.06316076	-0.26553035	-0.5562387	-0.13394558	0.35225803	0.28116098	-0.5597615	-0.41456	0.034809098	0.05854049	0.15087198	0.0035972206	0.47225717
0.2393981	-0.2579625	0.013736044	-0.3586334	0.19886194	0.17819537	0.02384635	0.02320049	-0.21958824	0.20533651	0.19925676	0.12975962	-0.07336786	0.19020964	-0.05627946	-0.24879289
-0.09510142	-0.10488357	1.8626906	-0.78398216	1.337588	-0.2408143	-0.9638011	1.9470651	-1.1354258	-0.588941	-0.8116256	2.0080543	-1.4399862	2.0929122	-1.1296467	0.07492444
-0.08583289	-0.9596449	-1.0283041	-1.4283527	0.053271357	0.062916	-0.81119204	-0.69365835	-0.30903453	0.6378705	0.13127482	-0.48237655	-0.25951147	0.4836834	-0.21250898	-0.52628464
0.44882143	-0.34640962	-0.107072495	-0.3647381	0.2359504	0.32707164	-0.03240452	-0.20661177	-0.2864533	0.6126003	0.63770795	-0.19012956	-0.23860364	0.11660285	-0.19434147	-0.54199576
-0.06396724	-0.34433007	-0.048842367	-0.63304967	0.22490759	-0.0010473399	-0.35900643	0.25333497	-0.409531	0.1377395	-0.028938325	0.26641494	-0.35180458	0.57878613	-0.29979953	-0.24836914
0.7064075	0.16455552	0.21622775	0.34290767	-0.00764078	0.40797877	0.35001066	-0.058169592	0.069519304	0.29946694	0.5469091	-0.1767253	0.23653516	-0.306419	0.17357343	-0.172197
-0.33628547	-0.7201825	-1.7565773	-1.4191971	-1.3486527	-0.9448535	-0.95179576	-1.3392527	1.3698068	1.8498726	1.5907303	-1.5549445	-0.2829553	-1.2771776	-1.2357323	-1.4275607
0.009587414	-0.10805891	-0.21984123	-0.19762865	-0.0692431	-0.012486972	0.0006659209	-0.034242082	0.043645926	0.17382707	0.10963298	-0.12186127	0.030898878	0.023969844	0.012649207	-0.08105256
-0.4493165	-0.026845597	-0.004178918	-0.701596	0.25632846	-0.54533076	-0.74270767	0.33123267	-0.29024088	-0.29853255	-0.19986175	0.1289497	-0.7525941	0.48974058	-0.8701163	0.14292939
-0.5819267	0.4930225	-0.5630998	0.033445127	-0.6598215	-0.5062022	0.031310294	-0.031520452	0.5661172	-0.436939	-0.47915182	-0.2252001	0.5893236	-0.2244414	0.37692103	0.5267916
-0.16842614	-0.11066507	-0.23584045	-0.2757265	-0.06265517	-0.14824876	-0.06670821	0.016605033	-0.04164355	0.010584617	-0.068492346	-0.08128833	0.03598808	0.18472683	-0.003056773	-0.044396807
-0.32886496	0.14830713	-0.16407993	-0.28244498	-0.13652414	-0.39137378	-0.20434448	0.28695807	0.15617132	-0.1871894	-0.20728552	0.07996187	-0.08940465	0.31150982	-0.14904194	0.1741527
-0.6331595	0.47445452	-0.28874505	-0.010762231	-0.437545	-0.6117326	-0.06193682	0.1891546	0.48231065	-0.5599299	-0.39079604	-0.06629598	0.35544124	0.045236487	0.09356513	0.56266123
-0.16321956	0.45547557	-0.09617518	0.3626641	-0.3805169	-0.21445145	0.4445214	0.29629162	0.3784355	-0.36086765	-0.43948758	0.11323846	0.53214675	0.028213043	0.51189387	0.3927964
-0.4103142	0.29758242	-0.14498465	0.047378857	-0.23046336	-0.29667613	0.09591104	0.3267798	0.1992765	-0.49142164	-0.4346561	0.14573114	0.22638118	0.27774057	0.30011216	0.3705597
0.28834617	-0.5046193	-0.17809908	-0.54370815	0.22149475	0.227835	-0.0927419	-0.23962215	-0.38357568	0.49210024	0.4176319	-0.08679692	-0.20166598	0.27891365	-0.23598006	-0.42565888
-0.30571374	0.04827434	-0.42965072	-0.17913951	-0.29283878	-0.25255162	-0.052233085	-0.067263365	0.23818246	-0.10757819	-0.15514672	-0.21705453	0.25418705	-0.03013984	0.10233648	0.15234378
1.4952178	0.37318826	0.954033	0.9886453	0.15457338	1.2876186	1.2672431	0.26789534	0.1649399	0.3518018	0.68717647	0.47652665	0.97562575	-0.38145462	1.2068075	0.012711913
1.4301811	0.45680594	1.288691	1.1149176	0.42876622	1.347682	1.2693408	0.6668912	-0.05789413	0.23862591	0.5203862	0.9200231	0.82975894	-0.1363187	1.1463709	0.013347546
0.8040667	0.49753883	0.5539178	0.7833717	0.044456843	0.64962256	0.7451784	0.1378833	0.19023879	0.047804844	0.2751101	0.23042557	0.6386423	-0.3391722	0.6351168	0.12054087
-0.014702705	-0.13514358	-0.7359383	-0.3471365	-0.35482365	-0.26091638	-0.3239283	-0.65343946	0.30108824	0.4236702	0.59090245	-0.7390224	0.10304115	-0.4872811	-0.32607338	-0.2186541
-0.59312147	0.19217779	-0.49629784	-0.59526545	-0.2544832	-0.5987572	-0.5966614	-0.07156264	0.15964472	-0.2078309	-0.09632275	-0.2952766	-0.14529596	0.047239978	-0.4884709	0.20021872
-0.52687347	0.238871	-0.45565993	-0.03244753	-0.45211127	-0.4352227	0.0829745	0.13427716	0.31335965	-0.37859127	-0.4688509	-0.02108804	0.42138427	0.07350837	0.46588957	0.39725968
-0.45762134	0.2498486	-0.08853519	-0.20870568	-0.097889565	-0.3968201	-0.15914927	0.5811956	0.0458991	-0.5704773	-0.5772934	0.3609332	0.06904502	0.51313066	0.16334543	0.37423214
-0.289075	-0.77364355	-1.4584111	-1.472337	-0.8360909	-0.8634185	-0.9908696	-1.1278589	0.84401745	1.473886	1.3394583	-1.3217088	-0.57329977	-0.9227067	-1.2617836	-1.2218355
0.113726586	0.33085248	-0.06349167	0.35427144	-0.26336247	0.011024974	0.3989612	0.041492175	0.26587063	-0.17262992	0.049903847	-0.06834205	0.5154844	-0.18464169	0.36681172	0.20640007
0.18878627	0.13284288	-0.11743803	0.059887085	-0.20639472	0.043694645	0.11293401	-0.15404113	0.22466344	0.08382259	0.23929471	-0.2177327	0.17369473	-0.36903244	0.04444062	0.035824038
0.79700667	0.23045085	1.2195354	0.56001645	0.6022295	0.6925202	0.771543	1.0977148	-0.36070746	-0.12198522	-0.13377671	1.1793243	0.17268571	0.68235356	0.5573192	0.030273227
0.023643859	-0.5464728	-1.3904877	-1.1323439	-1.0099348	-0.5711781	-0.76300925	-1.112745	1.0914143	1.5858022	1.426269	-1.295043	-0.28142902	-1.055727	-1.0140102	-1.240246
0.30767092	0.07007851	0.057156842	0.2428796	-0.09544159	0.31486976	0.39388287	-0.06955421	0.09773163	0.15026368	0.16862978	-0.022303991	0.32508293	-0.21170823	0.33420724	-0.080369666
-1.417527	1.2870408	-1.0904044	-0.19697489	-1.1907854	-1.3124233	-0.6334561	0.36376858	1.0851363	-1.5033453	-1.3044581	-0.3146205	0.8206049	-0.053170357	0.57306343	1.3425534
0.065228075	0.12431951	1.7728279	-0.31653622	1.4372039	-0.07387353	-0.5624688	1.8958801	-1.3116355	-1.0247726	-1.0666579	1.8687656	-1.4906527	1.8455962	-1.0040792	0.22221766
0.65364546	-0.8220064	-0.14739111	-0.67991745	0.4762134	0.8001693	0.15369745	-0.67493147	-0.6484234	0.9212692	0.59284043	0.29382604	-0.31542185	0.35443097	-0.009193541	-0.7256048
-0.9346614	0.7208764	-0.34188312	-0.15372574	-0.4816898	-0.97967756	-0.46232846	0.7570651	0.53349674	-1.0866861	-1.0524458	0.37327135	0.15184024	0.570952	0.09558003	0.8411221
-0.66075885	0.26985303	-0.6566224	-0.42811617	-0.47353554	-0.73465276	-0.5044351	0.008376342	0.4204924	-0.40554303	-0.265222	-0.25996068	0.15867108	0.06058755	-0.23899943	0.3893035
-1.1486022	0.895006	-1.4057891	-0.2463	-1.2959522	-1.1213565	-0.34763765	-0.25061432	1.2175983	-0.6973597	-0.5104567	-0.81106925	0.9389323	-0.34545133	0.1575339	0.7917891
-0.17012687	0.024952885	0.0029526723	-0.11962185	0.0118038235	-0.10729417	0.026258105	0.24276401	-0.019499717	-0.24383228	-0.16333011	0.1692692	-0.0039030816	0.28981897	0.045940418	0.07832502
1.8665601	0.53031254	1.3895621	1.3722184	0.20522982	1.7255979	1.6883271	0.39613572	0.060727272	0.402724	0.80034125	0.8595375	1.1710624	-0.6733926	1.7132474	-0.031908944
0.8127622	-0.15508097	0.8656177	-0.06877107	0.967093	0.5953339	0.23909716	0.724186	-0.7397409	0.1407788	0.19438131	0.671652	-0.4581943	0.8057402	-0.11139741	-0.30198434
0.29388046	0.07511378	-0.0296538	0.21235617	-0.12744905	0.12046599	0.3787464	-0.06947019	0.1822886	0.24016497	0.23790644	-0.11933628	0.36320916	-0.11625376	0.30197567	-0.10241492
0.1478296	0.35101572	-0.39515975	0.1956437	-0.43553337	-0.038175397	0.19646032	-0.32039186	0.5042355	0.18332116	0.41373524	-0.5234095	0.53160954	-0.7005463	0.14819054	0.04034189
-0.544188	0.012957969	-0.3524013	-0.85150146	-0.13747439	-0.49653256	-0.69168484	0.63467616	0.04998869	-0.3580927	-0.63548017	0.30239537	-0.1487187	0.6866518	-0.22946876	0.2459557
0.21412978	0.06512241	0.014075791	0.037071723	-0.08450961	0.10461237	0.1933448	0.021370964	0.031303905	0.12147453	0.17925234	-0.08343218	0.1318455	-0.08889154	0.1266094	-0.0152769545
-0.06444315	-0.41597173	-0.042611778	-0.61754405	0.31231076	-0.08086978	-0.4286715	0.1785678	-0.37797925	0.1572576	-0.054655146	0.14308836	-0.46339732	0.6339038	-0.48536098	-0.27879184
-0.048841726	0.14852798	-0.24210888	-0.19492555	-0.13222507	-0.2965431	-0.3242088	-0.23548815	0.16167282	0.17417628	0.4733011	-0.38010412	-0.16474849	-0.33955538	-0.48345155	-0.082690895
-0.046351768	0.15831931	-0.16576034	0.074069746	-0.18656974	-0.05132099	0.25177392	0.15544368	0.10653972	-0.08632439	-0.21314323	0.13897279	0.23682866	0.06734062	0.38034746	0.14929691
0.5038943	-0.2961752	0.14989574	-0.011412184	0.2609422	0.3544265	0.16588533	-0.013871281	-0.2220932	0.38002533	0.40340373	0.080370784	-0.18009189	0.124863334	-0.11215926	-0.29385325
0.6420702	-0.8221757	-0.3762046	-0.8064338	0.39065397	0.50724876	-0.24229504	-0.80799496	-0.40319425	1.0439458	0.9983434	-0.5432041	-0.46405914	-0.030425748	-0.46422243	-0.864409
-0.5149553	-0.3288724	-1.2836268	-1.1346378	-1.1856002	-0.9699216	-0.802122	-0.8835415	1.2245756	1.0934991	1.0008614	-1.1095504	-0.19397458	-0.9056328	-0.91959953	-0.82929444
-0.6645777	0.39923537	-0.46063808	-0.2392217	-0.43387097	-0.6288649	-0.2972533	0.11410086	0.3347549	-0.5448193	-0.5038387	-0.10742577	0.2023592	0.052108973	0.076419406	0.47363445
-0.9690816	0.6490701	-0.29325968	0.044003025	-0.5152894	-0.7743797	-0.22165047	0.6224486	0.48661846	-1.0327299	-1.0650752	0.32087928	0.25215605	0.40849483	0.27366456	0.8133631
0.29454958	0.17769025	-0.6394311	-0.12007331	-0.831494	-0.22142194	-0.23097734	-0.7240222	1.1093392	0.9081877	1.0624105	-0.93587565	0.30195427	-1.021728	-0.39414525	-0.52466726
0.5825892	0.6996478	0.50315917	0.91980076	-0.18527253	0.4651743	0.80102533	0.2725786	0.4337948	-0.31889105	-0.013686338	0.22624843	0.77740955	-0.373003	0.85585755	0.41744608
-0.35099682	0.5927729	-0.10492847	0.29058605	-0.43082896	-0.34914276	0.13321564	0.2684035	0.39191183	-0.5705158	-0.44450474	-0.0028469958	0.41838926	-0.11088946	0.3469182	0.6067182
0.9253059	-0.07709764	0.4091217	0.2456856	0.33036387	0.69485736	0.5839453	0.043281935	-0.13646343	0.4649866	0.5389374	0.15734045	0.16955315	-0.16736972	0.39490595	-0.28891212
0.40823653	0.34579659	0.021880183	0.4215253	-0.21718274	0.18893388	0.35199624	-0.05733445	0.36309636	0.04954669	0.30221987	-0.13529123	0.5263795	-0.3988552	0.30959356	0.059448052
1.5674124	-1.5169365	0.45240992	-1.4724159	1.3470129	1.2878298	-0.3898311	-0.9149114	-1.3596581	1.7026094	1.6600603	0.29969665	-1.3704191	0.9971859	-1.1688266	-1.5895394
-0.84384125	0.2938061	-0.56352663	-0.79140484	-0.4578188	-0.9868059	-0.97409385	-0.107518256	0.44613242	-0.28791353	-0.1726402	-0.49403596	-0.34146994	-0.054194737	-0.8426432	0.24993576
0.21157598	0.28081667	0.19845995	0.50154936	-0.12732564	0.2051741	0.6210308	0.13356598	0.14472622	-0.10153288	-0.12637083	0.1906125	0.5885982	-0.12998876	0.684429	0.2599518
0.9969838	0.39035538	0.5660372	0.77225596	0.12966292	0.7633274	0.756673	0.157582	0.1123002	0.24057516	0.49465036	0.23223177	0.54000473	-0.29177418	0.5416178	-0.002970137
0.31948164	-0.3920148	-0.1333645	-0.4237971	0.30733997	0.22466181	-0.10931704	-0.22204229	-0.26384377	0.45847866	0.42872882	-0.08167641	-0.28430942	0.14470662	-0.18556872	-0.36989745
-0.16826001	-0.47915035	-0.8126287	-0.96242297	-0.06763193	-0.052815065	-0.4848649	-0.5788248	-0.22118959	0.3598241	0.006388729	-0.39704743	-0.08371278	0.4845213	0.0071549085	-0.28398934
-0.042498905	-0.18873419	-0.29534197	-0.2635576	-0.053228933	0.01533415	-0.07440459	-0.24361517	-0.0879554	0.22518793	0.09976836	-0.13183734	-0.032688305	0.100756936	-0.026415763	-0.19716468
0.23114355	-0.35390905	1.509443	-0.7567263	1.3695347	0.18029389	-0.7284122	1.5281173	-1.2897094	-0.34548497	-0.52085197	1.7228934	-1.363822	1.7263681	-1.0336089	-0.16697875
0.3389341	-0.0541287	-0.04286454	0.012248967	-0.03410865	0.18409316	0.07211593	-0.28637782	0.085915096	0.40470728	0.49913555	-0.36735094	0.106354564	-0.22538254	-0.18233943	-0.29283524
-0.24453406	-0.25082102	-0.666381	-0.7515842	-0.35378212	-0.702343	-0.6061369	-0.37875274	0.50067246	0.5906997	0.70974845	-0.66056657	-0.432946	-0.35478115	-0.86495346	-0.5116775
-0.21835375	0.066493556	-0.13074353	-0.107143626	-0.18329298	-0.18807599	-0.002339509	0.14058934	0.13641603	-0.12153006	-0.122856416	0.02465147	0.13609803	0.14644717	0.004232322	0.10253611
-0.13947433	0.065450534	0.24285717	-0.03775095	0.072763935	-0.05175454	0.112398155	0.4859117	-0.12779374	-0.28008243	-0.29856732	0.4117413	-0.024645757	0.39626375	0.111090556	0.19379693
0.06712019	-0.07018142	-0.2130998	-0.20143105	-0.10898252	-0.007308554	-0.123306714	-0.26118383	0.11442415	0.2494274	0.37029448	-0.33623374	-0.013381321	-0.06761304	-0.10993596	-0.21250896
0.05669797	0.28298724	-0.76368004	-0.15090846	-0.75755286	-0.38676012	-0.26996446	-0.7374468	0.94663346	0.76683074	0.94516486	-0.9519234	0.36673817	-1.0441211	-0.37192225	-0.29764917
-0.9893908	0.58310944	-0.6608526	-0.38566214	-0.5669957	-0.97827876	-0.7042321	0.37098697	0.5889182	-0.8722955	-0.83477175	-0.10886557	0.27948675	0.23331726	-0.038252033	0.7248414
0.1698367	0.24051337	0.06992446	0.29945898	-0.11202386	0.10243438	0.35702294	0.05298656	0.108481705	-0.08473847	0.06370799	0.050883956	0.38800672	-0.07912717	0.40519837	0.08373819
0.021519382	0.020717256	0.10173344	0.025934167	0.0015249843	-0.010537835	0.21028718	0.24067143	-0.058254767	-0.009637616	-0.05637789	0.15097074	0.09704675	0.22777328	0.20862943	0.037772343
-0.20153078	0.0136359185	-0.18784009	-0.257998	-0.08688104	-0.23051329	-0.21802437	0.01244927	-0.0046872366	-0.0754717	-0.048529726	-0.0028381667	-0.08946825	0.2037655	-0.14500217	0.062636845
1.3944722	0.76055574	1.2430089	1.2152671	0.22677831	1.2611495	1.1880678	0.76049614	0.27979988	-0.0030002757	0.41246086	0.9906774	1.084657	-0.51766765	1.255708	0.38148767
0.50720555	0.9790565	1.3231317	1.0733231	-0.0460634	0.37629512	0.96115416	1.3150525	0.35649016	-0.8201259	-0.6165402	1.2871016	0.728529	0.28415784	1.0040752	0.75084716
1.0960418	-0.93981504	0.4964821	-0.7880354	0.9676353	0.93214506	0.2961048	-0.05471301	-1.0268179	1.1411037	1.0730423	0.5869783	-0.74394864	0.9829741	-0.2978341	-0.9758515
-0.55918175	0.45369074	-0.33338574	-0.30411375	-0.34038746	-0.5690928	-0.34806	0.16255824	0.3272735	-0.49309644	-0.35636333	-0.09516452	0.069630146	0.12458415	-0.07778907	0.4499857
1.6217697	1.3170865	1.0962579	1.5292325	-0.4386939	1.3902855	1.3218293	0.50710994	1.2721134	-0.3158078	0.5701449	0.6329676	1.5233786	-1.3196678	1.5302888	0.9671548
0.8579708	-0.75055707	0.025508447	-0.79752797	0.7076469	0.5876451	-0.23793519	-0.25301048	-0.70326054	0.9053552	0.8951392	-0.07381012	-0.7717788	0.50943893	-0.6086854	-0.9066358
-0.6157256	0.55444765	-0.60854065	-0.05394447	-0.6380531	-0.57263666	-0.04000099	0.11863723	0.61934704	-0.61025316	-0.44013527	-0.24750075	0.53860515	0.002214949	0.2164587	0.58050215
0.7721204	-0.14385208	0.1564526	0.1878355	0.2372667	0.67442334	0.4576355	-0.21936578	-0.08094843	0.5582436	0.63151217	-0.023759257	0.26736724	-0.16202831	0.23665735	-0.344936
0.05723224	0.28040436	0.3553037	0.029353261	0.24016495	-0.15441623	-0.07820382	0.35575318	-0.16155778	-0.30122894	-0.14091927	0.2505729	-0.2949098	0.3864368	-0.2598558	0.17461067
-0.34991342	0.96566224	-0.16436744	0.6047925	-0.61519545	-0.40626332	0.33482742	0.2068919	0.75781333	-0.7962247	-0.47340068	-0.0157151	0.72376275	-0.3381365	0.46904722	0.81042254
0.7231689	0.85748196	0.6108937	1.0511247	-0.32862735	0.6357668	0.9487717	0.28185025	0.56000316	-0.31702402	0.060064938	0.35140413	0.9615909	-0.5613898	1.0915383	0.5686075
-0.9551074	-0.10509108	-1.2100403	-1.2083759	-0.8710898	-1.2055999	-1.1189293	-0.7256238	0.7601026	0.34424213	0.4192168	-1.0886285	-0.2593978	-0.5928438	-1.0723454	-0.1692397
-0.65939367	0.60021174	-0.63077843	0.026329251	-0.71870685	-0.63763887	-0.14340751	0.0189754	0.6706201	-0.5776891	-0.5292901	-0.20817658	0.5475997	-0.19867523	0.35175955	0.6114947
0.28904954	0.38994437	0.46375385	0.49670538	0.2736999	0.23418988	0.4173547	0.33441165	-0.082798444	-0.29520446	-0.12770277	0.32606846	0.17035538	0.13961855	0.24613845	0.214739
0.97273195	-0.2243203	0.0820593	-0.04695476	0.38017547	0.73399156	0.36961058	-0.18336354	-0.24436218	0.68493384	0.8703445	-0.082187116	0.03604792	-0.06714173	0.12336876	-0.52402866
0.0672959	0.17156337	0.79879504	-0.036977857	0.5996574	0.081006356	0.029234877	0.9845994	-0.54600257	-0.5208489	-0.5754632	0.9851193	-0.53040165	0.94245124	-0.09414561	0.23929653
0.40625104	0.63112235	0.18168443	0.6980251	-0.34723416	0.18936889	0.5677621	-0.059220303	0.62772614	-0.15267271	0.14063923	-0.09024577	0.6946442	-0.5808312	0.40503415	0.2995129
0.22080211	0.037295315	-0.1578171	0.10007809	-0.10892922	0.22632155	0.30730665	-0.19415873	0.10354193	0.21261781	0.28723446	-0.13549286	0.3523331	-0.32779884	0.26233873	-0.0017450426
1.4496781	-0.75238997	0.7117974	-0.46171498	0.8487081	1.1392292	0.48535562	-0.2095194	-0.839238	1.1512339	1.1577442	0.42385995	-0.56890655	0.6201988	-0.018295249	-0.9346389
-0.41292512	0.040009484	-0.7659706	-0.49146715	-0.54486483	-0.5523602	-0.46778953	-0.47637913	0.50513375	0.24643886	0.24341169	-0.67088413	0.09364342	-0.3802224	-0.39769566	0.023777748
0.14818956	-0.1264239	-0.20433871	-0.19586153	-0.018101312	0.08616254	-0.040185872	-0.21479422	-0.043383054	0.31243846	0.35768664	-0.19419025	-0.008761308	-0.14633512	-0.1724025	-0.20852517
0.900421	-0.3590241	0.28723603	0.1698071	0.35042015	0.79797506	0.5364971	-0.2086799	-0.3335698	0.7581229	0.7091904	0.068989225	0.14050935	-0.078040086	0.34273547	-0.5317735
1.2040818	-1.0887724	0.8454248	-1.1920081	1.2737496	0.95037526	-0.28921643	0.24503984	-1.1767192	1.0291036	0.925574	0.86464137	-1.2858671	1.2935777	-0.9830687	-1.0527843
0.62787914	0.20054771	0.8131477	0.2765317	0.4003771	0.5629616	0.5525536	0.66102135	-0.31176928	0.020915657	0.10766058	0.69564784	0.12537104	0.4299626	0.4436651	-0.014213963
0.82720274	-0.12846994	0.8315112	0.17969295	0.64390284	0.6769734	0.4301359	0.4883733	-0.48232615	0.21513163	0.26117542	0.650686	-0.07548004	0.41567737	0.26201063	-0.22873461
-0.39077193	0.051315896	-0.047612667	-0.41029093	-0.0024445413	-0.29901174	-0.32594955	0.33746746	-0.10481806	-0.26836324	-0.32637402	0.15437213	-0.21417269	0.400381	-0.27226177	0.2086979
1.3159736	0.102903	1.1221642	0.73671347	0.4155995	1.2334995	1.0324996	0.53901476	-0.23569389	0.22900802	0.4383747	0.9046296	0.5250551	0.026523925	0.94904923	-0.15828988
1.460468	-1.0085871	0.73632294	-0.8875731	1.0902143	1.1146495	0.44398394	-0.077780165	-1.0442394	1.1979859	1.2354428	0.65801466	-0.9472429	0.994799	-0.3315459	-1.065572
0.62695867	-0.5396364	-0.30762708	-0.6605072	0.3928831	0.3692076	-0.23771557	-0.58496225	-0.3406536	0.8704483	0.9510068	-0.404487	-0.55757	-0.06179731	-0.45391324	-0.77734435
0.6938041	0.66888434	0.2566436	0.58748966	-0.15862313	0.41983077	0.4605288	0.056164965	0.7229995	-0.0053713913	0.36083284	0.045600154	0.752169	-0.59579337	0.4063503	0.31969717
0.27276185	-0.02276531	1.0675882	-0.038846433	0.86421555	0.22771281	-0.009732223	0.97010183	-0.7668995	-0.28027952	-0.39343685	1.0710615	-0.65124524	0.9845192	-0.28004444	-0.0089905625
-0.378128	0.13468546	0.1169728	-0.16629902	0.0073371395	-0.34245825	-0.17304762	0.43243963	0.016603136	-0.37307593	-0.3937367	0.2946235	-0.080495834	0.40836003	-0.08793742	0.28605148
1.0484726	0.7241396	0.75611824	1.1113346	-0.1387029	0.89740926	1.1254681	0.312346	0.39151552	-0.06335473	0.34598908	0.38982135	1.0068816	-0.6358016	1.1523241	0.42279172
0.32820904	0.04323732	-0.43156323	-0.111766964	-0.26956218	-0.029863918	0.004747408	-0.60531175	0.3289891	0.6000069	0.827646	-0.62086475	0.3082147	-0.5628822	-0.06419511	-0.24861522
-0.15721169	-0.36878967	-0.061106868	-0.7538383	0.15379669	-0.11689161	-0.40312105	0.28342757	-0.30375707	-0.0014381009	-0.11820795	0.2662605	-0.3376921	0.5163374	-0.40388766	-0.15908395
0.3789524	-0.32415828	0.046096962	-0.30940935	0.36735237	0.3223428	-0.10077232	-0.13812949	-0.3914555	0.4292225	0.45392975	-0.11393454	-0.30463547	0.09246067	-0.27372324	-0.37901208
-0.65931964	0.46092087	-0.57793194	-0.014037524	-0.65305334	-0.69715405	-0.18056831	-0.07104639	0.64352477	-0.39534503	-0.3736126	-0.3542923	0.42136565	-0.20440154	0.010736884	0.48712873
-1.1344115	0.5526454	-1.4263482	-0.85613275	-1.2048093	-1.2200377	-0.8238919	-0.69619167	1.285646	-0.2637291	-0.049766008	-1.010215	0.5500619	-0.75373125	-0.45155492	0.418594
-0.09613176	0.58467865	-0.17131372	0.5997999	-0.62265337	-0.10433414	0.49469522	-0.17724468	0.66646415	-0.24773839	-0.09115439	-0.20124209	0.8156132	-0.59016156	0.6612089	0.4313287
-0.0068952953	0.034598917	-0.045955084	-0.21946256	0.031348556	-0.10720846	-0.111046545	0.08216904	0.020523595	-0.006531616	0.047631104	-0.10187448	-0.18420333	0.09705642	-0.22554614	-0.012971963
-0.22648782	0.32466564	-0.2027071	0.15514615	-0.37398207	-0.26548967	0.15175898	0.032162096	0.31820422	-0.29926458	-0.24188352	-0.12145177	0.3221067	-0.081688814	0.25765592	0.36712784
-0.7993061	0.73343647	-0.008202016	0.24457219	-0.45752665	-0.6548145	-0.043291382	0.7636102	0.43193343	-0.9841458	-0.9114348	0.43157113	0.3467094	0.34061727	0.3611456	0.85405165
0.8197654	-0.21984255	0.37786442	0.1807735	0.3303666	0.72729385	0.4713815	-0.21064918	-0.2642639	0.6595442	0.6093352	0.098514065	0.16632552	0.035993475	0.25564298	-0.430851
1.5137606	1.2010701	1.0764885	1.3833228	-0.025839483	1.3172009	1.1977414	0.5139714	0.7981545	-0.41054714	0.34587905	0.5876873	1.3146217	-0.9332046	1.2627217	0.86337423
0.53237593	-0.65892667	0.21896248	-0.5631229	0.5979594	0.46259972	-0.095024325	-0.05695398	-0.67476666	0.585657	0.44424254	0.10806765	-0.59050304	0.5093348	-0.39781463	-0.6516683
-0.6507625	0.16075215	-0.5518394	-0.6028214	-0.38267404	-0.58776444	-0.6290055	-0.02823991	0.29833636	-0.29358903	-0.33028707	-0.27751714	-0.081786126	0.13444479	-0.44431308	0.22078456
-0.67907345	0.68400776	-0.4132539	0.31121558	-0.7396209	-0.5755592	0.22266506	0.34548116	0.7502757	-0.7887573	-0.67631	-0.025573675	0.74549377	-0.16924258	0.639526	0.82667816
0.11073449	0.5062469	0.59146696	0.44442537	0.18259041	0.026234303	0.3574688	0.90369344	-0.03326159	-0.6299204	-0.5557251	0.74708104	0.13088384	0.5370083	0.36026424	0.4587024
0.11347449	-0.24348971	-0.3907176	-0.26915997	-0.07876926	0.02565722	0.012818321	-0.46648145	0.058056884	0.5247778	0.4955287	-0.45079237	0.1497059	-0.2561411	-0.1149015	-0.28979376
1.433347	0.16627346	1.0006033	0.8265588	0.28159577	1.203817	1.2440623	0.2547177	-0.11960584	0.52819175	0.78894943	0.6683718	0.7198171	-0.19084089	1.1040356	-0.186604
-0.45608914	0.76779646	-0.4068345	0.3102646	-0.6657827	-0.5052283	0.20820895	0.19429412	0.69941	-0.6522394	-0.5490533	-0.09532371	0.6940259	-0.0871072	0.53283036	0.6505942
-0.31657612	0.5475859	-0.06688066	0.18606648	-0.38637364	-0.43654662	-0.0014299357	0.20294721	0.49659723	-0.4642897	-0.35239312	-0.014147959	0.26733068	-0.056340892	0.111080274	0.51678926
-0.7737179	0.42849573	-0.42743126	-0.4190959	-0.45029327	-0.74764454	-0.5137263	0.38253468	0.31424785	-0.7403921	-0.6800594	0.032438226	0.08693674	0.27201793	-0.058817446	0.56679535
-0.18637387	0.15468241	-0.12684572	-0.15842284	-0.06022606	-0.28623784	-0.3503545	-0.055301394	0.08976873	-0.08991245	0.084123075	-0.15091099	-0.14722216	-0.048142914	-0.36870256	0.09421105
1.6155065	-1.374248	1.0465134	-1.2974803	1.4033922	1.35527	0.061289307	-0.3580986	-1.3379697	1.473393	1.4810158	0.98835504	-1.3102412	1.2782034	-1.0156996	-1.3952622
-0.89590585	0.52222735	-0.58991456	-0.19252792	-0.62877536	-0.7504445	-0.31023076	0.56361705	0.5257846	-0.8555762	-0.8765838	0.13910252	0.55583453	0.34067175	0.58954084	0.6892814
0.1479021	-0.36309394	-0.30504286	-0.5210176	0.11513153	-0.020912329	-0.299864	-0.24944502	-0.19631065	0.42826936	0.33636007	-0.25814366	-0.35022187	0.021340651	-0.44263846	-0.31418467
0.26848757	0.3253398	0.6063469	0.45328322	0.15169561	0.13781291	0.43820637	0.6687612	-0.07589213	-0.40289927	-0.29677346	0.5767664	0.24535395	0.30019373	0.39187896	0.29021087
-0.83921087	0.5565079	-0.6955769	-0.1053664	-0.7174964	-0.74714816	-0.29695064	0.08926581	0.68433905	-0.7219011	-0.6025169	-0.30878946	0.4405166	-0.10822653	0.22447306	0.63635176
-0.4735365	0.2327915	-0.3836438	-0.29042882	-0.26117977	-0.5078849	-0.24690257	0.1948633	0.28658518	-0.29694667	-0.40305272	-0.04798237	0.09429005	0.20477554	-0.17053981	0.2651721
-0.43386024	1.1654927	-0.22898564	1.0198649	-0.77784026	-0.45816907	0.81468016	0.67458194	0.8741646	-1.0068203	-0.8749335	0.23654923	1.3283666	-0.37450585	1.476841	1.0294552
-0.51304126	0.4570535	-0.23187602	-0.068492986	-0.36533952	-0.47162697	-0.13903348	0.30481097	0.3463076	-0.5375341	-0.5094631	0.1180311	0.1430429	0.21946096	0.082006425	0.4747646
0.43919268	0.033725016	-0.4577795	-0.06104401	-0.29523882	0.14860475	-0.042148016	-0.5300559	0.44539276	0.57273847	0.7687663	-0.58111876	0.2524937	-0.75469357	-0.23215427	-0.35139793
-0.86424595	0.78986496	-0.90112334	-0.053100783	-0.9285268	-0.83809763	-0.25435427	-0.0011899755	0.8405295	-0.70577437	-0.5919463	-0.5382636	0.78302246	-0.27291846	0.32413244	0.7492616
-0.2977395	-0.30955455	-1.030938	-1.1598352	-0.6255538	-0.75601846	-0.8060977	-0.6415504	0.73097175	0.86046624	0.8355172	-0.9334227	-0.2564556	-0.536937	-0.92253244	-0.6904031
-0.5224719	0.30665982	-0.2498728	-0.21499723	-0.32176638	-0.5005532	-0.18993345	0.2969497	0.25121126	-0.49714687	-0.47550723	0.11943538	0.14413014	0.3016173	0.12728767	0.35685566
-0.46827835	0.18709466	-0.46877766	-0.13653445	-0.3646113	-0.37001395	0.021567153	0.11475085	0.31453902	-0.35811758	-0.50319463	-0.041775044	0.31107378	0.06032607	0.4001497	0.37559614
-0.40320152	1.1295232	-0.3312901	0.83050984	-0.85334975	-0.4240713	0.51423687	0.0538279	0.94932204	-0.8079548	-0.711725	-0.16895674	1.2539744	-0.73886013	1.1375806	0.90675735
1.4323734	-1.1506804	0.83276266	-0.9032201	1.2657055	1.1645321	0.062183153	-0.23135136	-1.1979207	1.2391306	1.170502	0.58510476	-1.0751135	0.9047652	-0.71733916	-1.181926
1.6430961	1.025208	1.352384	1.4679725	0.28106558	1.5342461	1.448174	0.686142	0.43248606	-0.059059598	0.55978334	0.95338124	1.2713614	-0.7468174	1.5542145	0.49887577
0.60212904	0.060232066	0.6988418	0.13659836	0.51220715	0.42744064	0.3121702	0.52196443	-0.3222764	-0.038505215	-0.052862205	0.5934205	-0.23636477	0.41828102	0.0818651	-0.10218404
-0.1519847	-0.4634799	-0.77325225	-1.0724171	-0.0303968	-0.26637283	-0.73025906	-0.51356184	-0.057847477	0.5776913	0.6272083	-0.6746719	-0.5779065	-0.07196296	-0.8795228	-0.5657954
0.9127807	0.3057072	0.3241152	0.6263505	-0.07467063	0.70744246	0.7418571	-0.19538166	0.25663838	0.40661666	0.62815315	-0.024785047	0.6976847	-0.56626064	0.6667282	-0.124390244
-0.20622644	0.17937857	-0.18697931	-0.0061484803	-0.22296685	-0.17113888	0.03493729	0.013947765	0.18073396	-0.11067856	-0.07300276	-0.07708172	0.119710326	0.037455995	0.09113845	0.189541
1.2500429	-0.40525803	0.7672538	-0.18618393	0.6898675	0.9975995	0.6234788	0.106019564	-0.5896953	0.75884086	0.8742534	0.53298396	-0.21194711	0.38914615	0.2287741	-0.5721957
0.2522781	0.39542994	0.41534498	0.47376642	0.022572603	0.22547665	0.5588169	0.49532804	0.06636886	-0.2525543	-0.13936362	0.4831009	0.4649479	0.103078395	0.5754284	0.28666508
-0.08639392	-0.4932215	-0.4111647	-0.99020886	0.2307102	-0.15781365	-0.9210266	-0.10707256	-0.29483974	0.32326034	0.2526984	-0.24408638	-0.7125899	0.35964334	-0.9746956	-0.425204
0.9423495	-0.43020996	0.68928075	-0.23119406	0.57299423	0.9143737	0.48269883	0.16546033	-0.4876426	0.55127877	0.6443884	0.59266055	-0.281012	0.35740438	0.13189858	-0.53065383
-0.107053444	0.5778373	0.021346351	0.26326683	-0.28460833	-0.16981934	0.046613537	0.0905392	0.34911266	-0.34019205	-0.107304424	-0.06017643	0.28331345	-0.2677654	0.04263734	0.38115588
-0.05883923	0.17035118	-0.076872095	0.25644785	-0.16780716	-0.021232955	0.31971416	0.11559324	0.19376194	-0.15544026	-0.10824065	0.02998036	0.37860268	-0.092539616	0.36237413	0.24757297
0.8737652	-0.08706551	0.37813753	0.46364155	0.23788072	0.7365027	0.6862239	-0.09673623	-0.14671251	0.5491661	0.61828625	0.10246676	0.42847198	-0.20889841	0.6294327	-0.3632051
0.54821503	-0.59554595	-0.26267728	-0.5249796	0.29704008	0.22212811	-0.35567492	-0.49002454	-0.31425318	0.8604223	0.8446009	-0.36086163	-0.5156271	-0.18226317	-0.66111046	-0.77465403
0.3304815	-0.40748164	0.2677681	-0.4230848	0.48763502	0.29887602	-0.075519435	0.27246583	-0.59191656	0.31923202	0.17871939	0.45477942	-0.44244727	0.67714226	-0.14479582	-0.32485318
-1.0450624	0.9770063	-1.0637572	-0.036897656	-1.0091783	-0.973089	-0.49754575	0.23629269	0.9121798	-1.0161797	-0.9055626	-0.52305067	0.9310753	-0.23433274	0.76860785	0.9595908
-0.19816646	0.66441226	0.05912894	0.53286195	-0.4104617	-0.19284903	0.41961503	0.20786169	0.44278562	-0.5047288	-0.3308857	0.058214266	0.59919494	-0.21410961	0.5185392	0.52961546
-0.08170968	0.6097059	0.040114835	0.46184194	-0.2611413	-0.15529357	0.3096954	0.18221527	0.36878374	-0.49267316	-0.28668398	0.06831696	0.4656014	-0.1775193	0.41182482	0.53615487
-0.008733761	0.08580369	0.12419685	0.0007090461	0.17232932	0.030750146	0.0057923854	0.26788834	-0.12542777	-0.16623174	-0.060974512	0.21978311	-0.121476054	0.2573189	0.017571917	0.10841882
0.39032906	0.5352675	-0.09747263	0.50530094	-0.6240802	0.21746531	0.38382426	-0.44717148	0.85918087	0.22732279	0.37409818	-0.45218945	0.7497444	-0.9162695	0.39037648	0.20498718
0.5653948	-0.4721243	-0.042456914	-0.5596224	0.49279156	0.30416867	-0.19071083	-0.20776397	-0.4160529	0.59091353	0.6041269	-0.12444342	-0.47041985	0.2958298	-0.40677264	-0.5846378
-0.07295317	0.1367299	-0.0456366	0.01344609	-0.1155935	-0.18252526	0.037224308	0.11199655	0.08596823	-0.06654489	-0.013509672	-0.02670753	0.053776514	0.09182223	-0.026987424	0.05827701
0.045580707	-0.075161874	0.06075314	-0.10406797	0.16687393	-0.008973887	-0.06748422	0.18743798	-0.1729055	-0.046371426	-0.035908617	0.13144821	-0.08579348	0.24758895	-0.098006055	-0.05773992
0.30185315	-0.244632	-0.047612067	-0.29844353	0.25045648	0.22186615	-0.011181487	-0.07965387	-0.27112752	0.36851212	0.26961967	-0.039601713	-0.16009031	0.17644557	-0.115595385	-0.25222516
-0.81044555	0.5502289	-0.35041884	-0.09142959	-0.4584727	-0.7358586	-0.23022187	0.5994835	0.407016	-0.93067783	-0.8426206	0.28431028	0.24331199	0.4100144	0.24622384	0.7006952
0.17541346	0.16687876	0.14183564	0.17286928	0.11695395	0.16052234	0.16179273	0.0680031	-0.038014226	-0.10375044	0.06789703	0.038557906	0.06782321	-0.056667846	0.07326563	0.07213852
0.5286903	-0.025275465	0.37968615	0.2549247	0.3154225	0.43550256	0.3441629	0.21369493	-0.14806764	0.12858905	0.28114533	0.241065	0.16647752	0.08436314	0.18402521	-0.09579361
-0.3667265	0.2278715	0.01402978	-0.09362682	-0.07383029	-0.21588315	-0.054237265	0.4737443	-8.7443026e-05	-0.50518674	-0.41229036	0.3943933	0.09620482	0.34883374	0.15599597	0.27835742
-0.24503751	0.3326931	-0.34149727	0.097941875	-0.50205725	-0.2711295	0.15744872	-0.14799733	0.4949251	-0.16527447	-0.15360776	-0.28833118	0.38261423	-0.44056204	0.21187663	0.2820869
0.9216703	0.5008158	0.33484113	0.6382172	-0.19746569	0.6272246	0.6009819	-0.123008326	0.46931696	0.21714428	0.65338993	-0.09048643	0.7207852	-0.78641844	0.50828445	0.039584987
-0.19079548	0.43168658	0.11326572	-0.0144340275	0.10659293	-0.37917557	-0.21545169	0.22176191	0.1114952	-0.32232845	-0.08149662	-0.045285117	-0.25020993	0.0969765	-0.40295225	0.20353237
0.8151415	-0.40944335	0.12263343	-0.15377502	0.47075123	0.5929222	0.119324	-0.24320349	-0.41610512	0.65292823	0.73669016	-0.11659476	-0.22253059	0.049582615	-0.10078689	-0.5453959
1.6108114	-1.3536224	1.1633407	-1.1492469	1.3912369	1.3545054	0.012629152	-0.48282373	-1.4036292	1.4742763	1.433535	0.9569302	-1.248085	1.180948	-0.9971388	-1.4099201
0.4996124	-0.6135339	-0.32101336	-0.6622633	0.29325595	0.35931173	-0.29124466	-0.63525784	-0.31402537	0.81325066	0.82905525	-0.4287312	-0.39803496	0.058785155	-0.46215066	-0.69345146
0.2474738	0.3168565	0.047325216	0.21698694	-0.040946	0.10410241	0.22060677	0.011281031	0.21943544	-0.092282504	0.26358232	-0.093454994	0.28261125	-0.24473861	0.10503138	0.051633686
-0.13902785	-0.0951651	-0.27520302	-0.35918388	-0.07236804	-0.16790676	-0.22814871	-0.16484073	0.032234393	0.12830152	0.12835504	-0.23205908	-0.072120726	-0.009034649	-0.2234618	-0.12813962
-0.17865215	-0.008976854	-0.0775272	-0.2176785	0.0037604843	-0.13284831	-0.18988949	0.04795396	-0.010311024	-0.112698935	-0.13850313	0.052519653	-0.1426448	0.1121664	-0.14701818	0.03258507
0.43992278	-0.53909427	0.14224626	-0.53840524	0.5017675	0.21481809	-0.3373278	-0.018877316	-0.5611114	0.48017734	0.4086414	0.065731004	-0.65065914	0.3965139	-0.6365997	-0.5538223
-0.34498563	-0.019554468	-0.5574604	-0.42359555	-0.30438435	-0.27696982	-0.24796219	-0.30283833	0.24323532	0.025313994	-0.08134646	-0.3309395	0.05474569	-0.087807216	-0.18982024	0.032287374
0.79109186	-0.47931358	0.102740936	-0.4593107	0.5353899	0.52396524	0.09930449	-0.085779645	-0.5034304	0.6243134	0.71721476	0.04957963	-0.54060346	0.4093782	-0.25778502	-0.6348231
1.1185783	0.28732914	0.7838364	0.6950802	0.4177459	0.9602568	0.75836873	0.27651608	-0.13642937	0.2051366	0.4505878	0.37428054	0.42537284	-0.18078211	0.6775306	-0.022473084
-1.0641619	1.0544661	-0.89886326	-0.10431918	-0.9739455	-1.001347	-0.44164234	-0.011451171	0.882152	-0.93386686	-0.8314242	-0.5480331	0.82345986	-0.2938222	0.37902066	0.9649347
1.0683157	-0.7277364	0.25673205	-0.5920682	0.69218314	0.811119	0.087760575	-0.34054282	-0.6695824	1.0118848	0.99071777	0.16670322	-0.5696736	0.47929627	-0.326366	-0.8635393
0.54233	-0.57766986	0.82766914	-1.0279477	1.2140303	0.37000483	-1.20652	0.8172078	-1.1270957	0.0157156	-0.253248	0.840964	-1.3314534	1.2667027	-1.4222957	-0.49628958
0.5580429	-0.005052641	0.32024568	0.1397817	0.3243365	0.393018	0.21943985	0.14514594	-0.19689529	0.20253502	0.39289027	0.05330188	0.030860042	0.07884973	-0.052997217	-0.15067632
0.29680255	-0.000603363	0.3946868	0.0039404836	0.20359825	0.28848892	0.18645687	0.34310645	-0.19881502	-0.035509985	-0.0685851	0.42823553	-0.064401805	0.32675102	0.15976569	-0.008069512
1.0997106	0.6324745	1.0213611	0.98624265	0.31279054	0.95504487	0.90436435	0.58180547	0.087824486	-0.2148867	0.12597352	0.6505739	0.7004375	-0.22476238	0.8297818	0.33474398
-0.32334518	0.022973737	1.0208402	-0.85219413	0.9375203	-0.40480763	-1.2789329	1.5169326	-0.87898105	-1.0376434	-1.133061	1.4115978	-1.2197317	1.5349907	-1.275037	0.2820991
-0.6489715	0.11401634	-0.6066122	-0.50556207	-0.5733588	-0.6594549	-0.47145826	-0.19961487	0.5265463	-0.067027114	-0.035339974	-0.46487606	0.06519061	-0.11000432	-0.2985197	0.12381733
-0.39818102	0.44772953	0.052473214	0.023647858	-0.09940518	-0.31995192	-0.04854705	0.6413685	0.11819683	-0.80194694	-0.6882465	0.42782518	0.12219488	0.38054362	0.14872229	0.59039325
-0.56198555	0.033658	-0.98192084	-0.60431474	-0.54964316	-0.46820804	-0.4086166	-0.4134709	0.34969375	-0.11864975	-0.2328371	-0.6172686	0.40437204	-0.21083926	0.21557102	0.20076863
0.5144877	0.09669015	0.39133504	0.31674877	0.19900912	0.4666395	0.46001753	0.1832479	-0.14545329	0.13385254	0.15070355	0.2773973	0.07231801	0.05970486	0.30051357	-0.08949265
-0.02685215	0.31434414	-0.52086943	-0.1607071	-0.83500737	-0.3013175	-0.054987367	-0.41279522	1.0021415	0.31076488	0.56265044	-0.5309334	0.42150623	-0.71560824	-0.14014381	-0.094665945
1.2344953	-0.5852736	0.6457631	-0.18219258	0.8070864	1.0652224	0.46542105	-0.04858004	-0.71966296	0.88223386	0.84290314	0.47417277	-0.2454506	0.49570534	0.112409264	-0.6952469
0.3385859	-0.28463614	-0.35144037	-0.28287223	0.05034217	0.09117216	-0.2577238	-0.42369676	0.056142643	0.6185978	0.7333028	-0.48894528	-0.21009544	-0.36402145	-0.45405823	-0.48332974
-0.020297272	0.119956605	-0.17789689	0.020042423	-0.26009974	-0.04441507	0.104385994	-0.13086116	0.21863455	0.040559597	0.093349	-0.15915762	0.34043217	-0.34442225	0.13108446	0.09703994
-0.24277812	0.29129353	0.2727465	-0.21346606	0.21433382	-0.2855659	-0.2726916	0.5505934	-0.10244467	-0.45804867	-0.32303497	0.3391029	-0.34856197	0.49051702	-0.33739185	0.22085097
-0.7220831	0.45152456	-0.3436335	-0.29048434	-0.39093062	-0.6995736	-0.46747354	0.50609136	0.32781556	-0.71432996	-0.72837967	0.26467222	0.1550543	0.32096925	0.13719976	0.5634024
-0.2974243	0.32504857	-0.60627866	0.12560435	-0.5555287	-0.44017467	0.17960101	-0.067361355	0.5369961	-0.18772563	-0.064358234	-0.3705114	0.60393745	-0.2528061	0.35987177	0.25394535
0.42905226	0.2508465	0.38670555	0.4255311	0.088710494	0.28095898	0.49989524	0.33884335	-0.020723552	-0.086385414	0.109911874	0.31610653	0.29566705	0.123651095	0.33782667	0.047709003
-0.49130684	0.21546198	0.011249992	-0.27458987	-0.0040317704	-0.555825	-0.39829814	0.39887393	0.04671106	-0.53063864	-0.39997524	0.13616532	-0.24474195	0.31882507	-0.34400618	0.3385837
0.42895275	-0.18554765	-0.5257284	-0.15462255	-0.30085537	-0.015204985	-0.22180726	-0.7550869	0.38919038	1.0343354	1.1599859	-0.7429397	-0.0033706715	-0.7845123	-0.38416183	-0.62156796
0.10810356	-0.27266908	-0.14065982	-0.25672686	0.10809879	0.08926086	-0.08536637	-0.12162417	-0.15538013	0.2642073	0.21926588	-0.13925394	-0.106167376	0.10013299	-0.22692123	-0.22529112
0.79551584	0.7592249	0.51251197	0.78483033	-0.32412502	0.53662914	0.7052621	0.21301973	0.6694144	-0.19426434	0.19604473	0.16643238	0.8287603	-0.54801214	0.7010669	0.49253258
-0.543938	0.16773418	-0.13216648	-0.26188362	-0.12335335	-0.36038703	-0.1395372	0.69602877	-0.0036014733	-0.4742504	-0.6058461	0.56406885	0.11458345	0.6253119	0.24585216	0.34788474
-1.2811671	1.2931271	-1.2906208	0.061439395	-1.2760663	-1.1717627	-0.5504252	0.1250952	1.2224281	-1.2568641	-1.1040946	-0.8776696	1.110534	-0.34294277	0.9736604	1.1799116
0.29376593	-0.109654054	-0.61493134	-0.3734102	-0.66909415	-0.2210213	-0.30096734	-0.51135176	0.8832065	0.8345149	0.93411124	-0.7084024	0.102684855	-0.78099716	-0.40712136	-0.70655054
0.78009355	-0.74107426	0.15663996	-0.84066725	0.6436481	0.506173	-0.042487513	-0.2235456	-0.6113558	1.057541	1.0773902	0.12798181	-0.6014401	0.5236793	-0.41287524	-0.79327226
0.112884805	0.18784945	0.112713486	0.23229441	-0.016882397	0.08335285	0.22057338	0.06514796	0.07205688	-0.09742615	0.06097975	0.0500366	0.3073652	-0.14371516	0.2513346	0.108007394
-0.40365875	0.79466504	-0.019850863	0.29770342	-0.46840683	-0.3634933	0.18355757	0.31121278	0.5080029	-0.72692835	-0.38053352	0.057620008	0.4086283	-0.0017895579	0.24473448	0.74070597
0.4703365	0.2764905	-0.22525874	0.17862083	-0.40406382	0.07566262	0.12449883	-0.47055027	0.59055805	0.3983321	0.76058847	-0.5062362	0.31229347	-0.6677589	-0.069951445	-0.13256359
0.4867988	-0.26797137	0.17948227	-0.19440438	0.44442758	0.29368296	-0.07882859	0.011157903	-0.3754113	0.33640122	0.41954505	-0.08261898	-0.4004554	0.23795114	-0.34981734	-0.40983003
0.17986171	0.07933554	0.01012048	0.16875501	-0.0364295	0.17266612	0.19502085	0.012304347	0.16024496	0.06640509	0.072368994	-0.07706731	0.23242673	-0.14798033	0.17388369	0.029892232
-0.12342991	0.45085898	0.361231	0.23240331	0.03813914	-0.1258646	0.22480452	0.68991894	0.012829495	-0.57718545	-0.5020732	0.57453895	0.11740737	0.40563676	0.27630204	0.36253676
1.113113	0.6919408	0.77360463	1.0792671	-0.33914465	0.9968526	1.043518	0.24194826	0.7288641	0.053110015	0.5837056	0.43720153	1.0372794	-0.90482897	1.0674474	0.43018597
0.4014311	0.082003675	0.18753402	-0.0577405	0.327069	0.081624754	-0.07776103	0.103142686	-0.23528498	-0.0077977646	0.18897922	0.06509041	-0.26713833	0.009689594	-0.41140443	-0.14981365
0.33119133	-0.26597005	-0.2341307	-0.2664905	0.070914604	0.07354533	-0.27824846	-0.31374738	-0.020224003	0.5618111	0.6586241	-0.40345243	-0.262208	-0.2552425	-0.4420515	-0.51324815
-0.2971976	0.24329154	-0.117652886	-0.00014477967	-0.18647401	-0.29447576	-0.05115406	0.20545983	0.11978605	-0.4089413	-0.32809252	0.103490785	0.09698244	0.09052414	0.04019855	0.35216025
-0.52247137	-0.45927337	-0.99099296	-1.1135578	-0.5096197	-0.87248313	-0.85966474	-0.7279709	0.48834482	0.8706465	0.78354484	-0.8413163	-0.60675156	-0.534397	-1.0755566	-0.8011086
1.2021772	0.8622028	0.9860332	1.1651827	-0.14478475	1.1317781	1.0930315	0.59591556	0.47343218	-0.18924403	0.3521437	0.7696676	1.0624095	-0.6474597	1.1740181	0.5220441
-0.4620896	0.24712346	-0.26595676	-0.29368693	-0.20570078	-0.45335925	-0.38368323	0.17980635	0.15721546	-0.4544703	-0.43640774	0.0028152368	0.058735974	0.12489748	-0.16995662	0.37724996
0.03210715	-0.3215851	-0.980039	-0.7250851	-0.59490687	-0.38114092	-0.45180693	-0.79555863	0.6558617	1.0245942	1.021423	-0.91657317	-0.078739606	-0.7650809	-0.6611407	-0.6728675
0.37708583	0.18456665	0.24401183	0.36062124	0.004858124	0.29332116	0.34923276	0.005465435	0.08546662	0.06596288	0.13239889	0.047977224	0.29776573	-0.14062926	0.21885486	0.062577784
0.09521096	0.14273548	0.19070965	0.18645601	0.010706269	0.056808885	0.28024745	0.23858136	-0.011846572	-0.09190633	-0.09756539	0.25918037	0.15845755	0.15730655	0.3296073	0.043415647
1.4871761	1.0519764	1.1143279	1.4188801	-0.25293583	1.3588676	1.3363097	0.39361283	0.80905026	-0.12182336	0.52166516	0.6814982	1.3253168	-1.0520798	1.5205586	0.61084646
-0.15148847	0.12632656	-0.09633477	0.11715925	-0.2006	-0.13733584	0.21042475	0.06807067	0.14778595	-0.16657944	-0.21115297	0.075632595	0.25957954	0.011798147	0.29427984	0.19828396
0.4195898	-0.3353274	0.022345556	-0.3354782	0.46834716	0.23662554	-0.2579701	-0.13630222	-0.4479976	0.46951327	0.52600145	-0.14720193	-0.41851288	0.15375023	-0.5385181	-0.5126008
0.35769862	-0.14096458	0.009757497	-0.03311702	0.15141556	0.19629447	-0.04528371	-0.20461701	-0.13182978	0.27385783	0.3844957	-0.19837241	-0.11062264	-0.13968058	-0.1790939	-0.32298604
0.58135366	0.3020928	0.56349695	0.58351284	0.23333922	0.48975235	0.5449395	0.38368458	0.058483116	-0.1379727	0.02798097	0.3722022	0.31266063	0.021478612	0.37974003	0.17105539
1.3539232	0.17673732	0.99188685	0.6838433	0.4015149	1.2033935	0.91654676	0.26683456	-0.19681638	0.444349	0.774812	0.62747854	0.5437971	-0.058877632	0.8971823	-0.25856775
-0.06443072	0.28148714	0.251556	0.104841255	0.043579668	-0.11369763	0.11533041	0.48686153	-0.035963852	-0.38379833	-0.25973636	0.34187353	-0.019000093	0.27093527	0.050359067	0.21885738
1.2856933	-0.9138936	0.6076895	-0.93005925	1.0662802	0.96961665	0.17170298	-0.24453416	-0.9598189	1.1864332	1.1891034	0.40912408	-0.9469083	0.8339501	-0.4985787	-1.0558076
-0.6162081	0.16696396	-0.35085517	-0.64394206	-0.11566696	-0.6834001	-0.5939778	0.0247334	0.23545483	-0.24978799	0.04441262	-0.2566344	-0.27228794	0.025856055	-0.67378473	0.11285562
-0.10984849	0.12106045	-0.21138602	-0.051824078	-0.2249606	-0.17513144	0.02592151	-0.12259479	0.20233828	0.07775696	0.109438546	-0.2769204	0.16890523	-0.13948013	-0.044105697	0.086413905
-0.4046003	0.061786328	-0.6289322	-0.25634184	-0.6094496	-0.57476723	-0.37513843	-0.51318103	0.6887852	0.26094723	0.28380492	-0.61908686	0.22711271	-0.50839186	-0.30187023	-0.08335902
-0.25561067	0.071011774	1.0092376	-0.6318988	0.80745786	-0.3525593	-1.1372194	1.2565781	-0.7531827	-0.86155677	-1.0061105	1.192326	-0.9328988	1.2201498	-1.0787168	0.30753747
0.28158408	0.26295093	0.30039895	0.35810244	-0.004242471	0.2748411	0.4038555	0.14241762	0.15484303	-0.06495445	-0.009329627	0.18267581	0.29113257	-0.029411472	0.3074617	0.18782856
0.33786142	-0.22395465	0.33431408	-0.090891115	0.33511323	0.36213475	0.2397524	0.18141243	-0.3074687	0.1850913	0.12901552	0.36217543	-0.12070935	0.35169578	0.059995625	-0.25757933
0.5519671	-0.18543404	0.105953164	-0.013682907	0.32519773	0.3488164	0.11582177	-0.11698796	-0.25914055	0.40163812	0.49876708	-0.092111096	-0.09630554	0.021711593	-0.034851473	-0.40005368
0.46021914	0.3427099	-0.014386918	0.38808927	-0.38922468	0.1831927	0.26525536	-0.29306707	0.5464055	0.4009391	0.5518261	-0.32385445	0.65084743	-0.7610466	0.22834231	-0.04964929
0.54372543	0.35722405	0.57854104	0.62542796	0.13454974	0.52901417	0.72261566	0.45952812	-0.035284806	-0.19463345	-0.053557035	0.47414866	0.44727102	0.060909018	0.7008219	0.20745021
0.023877162	0.04130419	-0.22232974	-0.27252123	-0.04558384	-0.22187775	-0.32478324	-0.18072689	0.14811979	0.17979415	0.34233427	-0.33898148	-0.2758013	-0.24048409	-0.43707627	-0.17078917
-0.30869314	-0.026307872	-0.35489103	-0.24851885	-0.195392	-0.32033592	-0.19656767	-0.17707387	0.119417384	-0.04425079	-0.010440435	-0.2399166	0.061743468	-0.05168767	-0.15358502	0.086666495
0.7625482	-0.281621	0.20956963	-0.1484268	0.4400253	0.5195029	0.20235224	-0.19854933	-0.38216373	0.62598723	0.69607514	-0.06264528	-0.14673558	0.061047062	-0.010642194	-0.5069005
-0.57048905	0.13806503	-0.4367417	-0.5549678	-0.29478467	-0.60678005	-0.5818523	-0.14800079	0.29124677	-0.16601823	-0.05616176	-0.28057465	-0.17838944	-0.020550214	-0.540273	0.18188106
0.23182395	-0.14800614	0.048510816	-0.033161305	0.053835712	0.27566198	0.46260563	0.049769945	-0.11935036	0.23405136	0.049926046	0.21907187	0.14943433	0.14681304	0.38461414	-0.14548318
0.44270465	0.3234795	0.43637046	0.6121177	0.0053154207	0.47254097	0.71484125	0.2979486	0.13460684	-0.14897405	-0.052209835	0.43486133	0.54199684	-0.05509143	0.7434379	0.163255
0.5249581	-0.5061638	-0.36223617	-0.38825348	0.1499962	0.29658633	-0.076484546	-0.72369003	-0.2305291	0.8785216	0.83564794	-0.5346608	-0.15023342	-0.26151204	-0.37083462	-0.6981284
-0.7082962	0.68115413	-0.5516738	0.14827493	-0.75479054	-0.6667873	-0.08338794	-0.13565174	0.76657414	-0.6414157	-0.39020142	-0.32403672	0.55941856	-0.39752823	0.16955538	0.64154345
-0.15561584	-0.1279698	-0.44649434	-0.56644267	-0.11703501	-0.26878002	-0.36456302	-0.30108866	0.12941793	0.22617064	0.27842683	-0.41109902	-0.1453646	-0.16049467	-0.47786143	-0.19969893
-0.89571184	0.14146306	-1.3836603	-0.9096665	-1.1396706	-1.102754	-0.784199	-0.76151687	1.1065071	0.14635973	0.19311398	-1.0368308	0.18664049	-0.759607	-0.6039772	0.10838086
0.24027678	0.28624842	0.07680685	0.20228657	-0.20672987	0.08813987	0.30464077	0.14910232	0.21369204	-0.035117444	0.07065729	0.08467574	0.28467596	-0.15427329	0.3691097	0.15905371
0.3674686	-0.3104846	-0.06657197	-0.25189358	0.24515133	0.24490249	-0.068290815	-0.24018903	-0.23460247	0.464798	0.51264197	-0.19286253	-0.18933578	-0.0013199304	-0.16496626	-0.44317663
-0.4589848	0.23559318	-0.286088	-0.1796302	-0.25862867	-0.4931539	-0.3105232	0.16786455	0.25471333	-0.34311673	-0.30412218	-0.008545323	0.013546057	0.13665766	-0.17684737	0.351741
0.39603978	0.87538826	0.08837595	0.72600424	-0.6535113	0.193107	0.5271033	-0.019796813	0.8596486	-0.28278807	0.23411688	-0.12842342	0.80801547	-0.6761406	0.5629986	0.5673829
0.081341155	-0.13219702	-0.36671695	-0.37228015	-0.091817796	-0.18416183	-0.29387718	-0.3959381	0.21003233	0.39458004	0.62397635	-0.47256064	-0.18248805	-0.35384017	-0.4245739	-0.33192477
-0.069631994	-0.2896784	-0.656242	-0.62283635	-0.15605684	-0.2564675	-0.48363945	-0.5982258	0.123175606	0.5735887	0.59455353	-0.6215289	-0.20148666	-0.42235935	-0.576542	-0.37590542
-0.62599105	-0.42443016	-1.4036658	-1.0123942	-1.160573	-0.9856699	-0.8874478	-1.0782894	1.1473483	1.2112386	1.0610526	-1.2855725	-0.26269045	-1.0557548	-1.0056692	-0.8495115
0.6660024	0.44197497	0.28558314	0.61144036	-0.18522935	0.5396133	0.60059184	-0.032078996	0.3760169	0.148231	0.3343752	0.027035683	0.6416425	-0.4401966	0.5186519	0.14102308
-1.1505085	1.129202	-0.78724396	0.23554464	-1.0338811	-1.0928268	-0.17140868	0.6099482	1.0035322	-1.3016138	-1.1469747	-0.08281211	0.86275786	0.05772441	0.83111614	1.213895
-0.162081	0.2262551	-0.48112616	-0.12527	-0.410315	-0.34282836	-0.24960372	-0.3792029	0.49825865	0.12511535	0.34044352	-0.54297185	0.14093883	-0.5697487	-0.1500008	-0.049858097
-0.030836314	-0.061922107	0.041658863	-0.2624511	0.09132283	-0.050297488	-0.14324908	0.13988145	-0.17372063	-0.005062628	-0.10212735	0.16611902	-0.20755084	0.3699458	-0.17521769	0.007731432
1.2330223	-0.9386661	0.3888756	-0.49769813	0.9455245	0.9913611	0.022837713	-0.33851647	-0.9147376	1.0947975	1.009192	0.057903986	-0.6731513	0.4757212	-0.47759515	-0.9640486
-0.62990254	-0.47110188	-1.1530759	-1.0836607	-0.98267734	-0.9289333	-0.7590322	-0.77484924	1.0453615	1.0730363	0.9277733	-0.92885995	-0.082682446	-0.7163404	-0.84380126	-0.8687951
0.55167073	0.71373266	0.46498567	0.5947417	-0.044539038	0.4474534	0.45723698	0.27264324	0.3209632	-0.21113162	0.12654656	0.1663603	0.6186643	-0.18354762	0.50591296	0.46781695
0.47161517	-0.36257365	0.028092071	-0.17941359	0.32280058	0.43940702	0.019980429	-0.18997471	-0.32029572	0.49012136	0.5312076	-0.093877815	-0.14796607	0.05021141	-0.18852583	-0.44157752
-0.9709205	1.0419474	-0.9601771	0.07227847	-1.0108446	-0.87002575	-0.10383034	0.12951992	0.9794814	-0.88800466	-0.8160897	-0.51978016	0.8764456	-0.207559	0.63510346	0.9445159
0.85193825	0.79283065	0.7206269	1.0119708	-0.2177822	0.7406808	0.9635214	0.3674477	0.49095497	-0.23113957	0.060977355	0.41995418	0.97708446	-0.596701	1.0489237	0.46564317
-0.2817139	0.5338696	-0.30903736	0.26311782	-0.5469799	-0.35300827	0.1075078	-0.11345138	0.6019565	-0.2190249	-0.067962244	-0.3365629	0.41697267	-0.3633702	0.1700371	0.41171688
-0.5109355	0.6011408	-0.34111235	0.26180917	-0.53510535	-0.458541	0.123971045	0.13026118	0.51828545	-0.59319144	-0.46218845	-0.05670299	0.5349483	-0.23642275	0.41021156	0.522394
-0.24602214	0.65550417	-0.019801218	0.41363907	-0.29659387	-0.2204345	0.3356977	0.32098693	0.34288663	-0.6682802	-0.5005067	0.17611325	0.582406	-0.014479948	0.47020605	0.6427863
0.49111652	-0.25779802	0.41535747	0.017737007	0.42044556	0.45231447	0.20828596	0.115418874	-0.36312175	0.2683224	0.25719598	0.28819996	-0.12414302	0.2522366	0.02151369	-0.33479238
0.6605831	0.16462143	0.53418344	0.29596573	0.42104006	0.64371765	0.46609712	0.42640343	-0.24143876	-0.16196121	-0.015232113	0.482544	0.032223996	0.18843397	0.35446462	0.05312552
-0.10068046	0.46794054	-0.08978507	0.34912923	-0.3692898	-0.12052123	0.19490491	-0.0333195	0.4662303	-0.23024553	-0.08174949	-0.11747483	0.41638494	-0.3242198	0.22465226	0.36847094
0.4943643	-0.248505	-0.14906543	-0.19314541	0.18075529	0.23526697	-0.011440865	-0.3364767	-0.11486816	0.5907887	0.6342594	-0.2944283	-0.17239991	-0.14402534	-0.26266268	-0.43862247
-0.27828705	-0.057988524	0.11447535	-0.4857129	0.15027449	-0.38092208	-0.51345855	0.37875178	-0.24124135	-0.31694892	-0.35767403	0.30347645	-0.4912859	0.5561599	-0.5918875	0.08406966
-0.467364	0.004008857	-0.6396217	-0.38231057	-0.40398437	-0.38896737	-0.3328502	-0.25902876	0.25353673	-0.050395265	-0.18602082	-0.3836151	0.14764816	-0.08782512	-0.029302305	0.13748284
0.6863781	-0.44787574	-0.3761647	-0.48842403	0.22415248	0.31002995	-0.121831626	-0.57238543	-0.17076008	0.9628579	0.9863964	-0.45482972	-0.27737603	-0.078224	-0.3089656	-0.7343875
0.025820382	0.20511088	0.030309277	0.025636608	-0.13299304	-0.013949229	0.13348028	0.1433965	0.097116165	-0.10725502	-0.08651063	0.065849125	0.20100453	0.08374147	0.061851256	0.08182646
-0.15627992	0.035816513	1.3427292	-0.34568325	1.0316095	-0.18362772	-0.5928084	1.4504853	-0.9195851	-0.8910923	-1.0623165	1.4527817	-1.0087311	1.3094501	-0.8755474	0.27148876
0.43924794	-0.2600827	-0.37597126	-0.19809236	-0.074012004	0.22427912	-0.096181914	-0.56241137	0.046296008	0.60586476	0.6588669	-0.49792883	-0.035497025	-0.41412914	-0.17773585	-0.44015688
0.9788834	0.3796425	0.4142546	0.529641	-0.047111634	0.6862747	0.57576656	-0.060974732	0.3181079	0.31392723	0.5415831	-0.0299348	0.56710756	-0.46904352	0.4370524	-0.071947634
-0.15281127	-0.2563956	-0.58010894	-0.6507882	-0.23309736	-0.44343597	-0.61763394	-0.5380433	0.2599618	0.4875164	0.5362808	-0.6060389	-0.35139257	-0.32590988	-0.8415119	-0.3908251
-0.0015285786	0.26475015	0.12628655	0.11422705	-0.043493778	-0.12634519	0.07489404	0.22333188	0.11632858	-0.24920094	-0.17596303	0.12374755	0.1120766	0.109505855	0.05063338	0.15000145
-0.20153765	0.67956454	-0.048783112	0.38131452	-0.34242037	-0.20191585	0.27119577	0.40084007	0.4388329	-0.62385476	-0.35332286	0.14500932	0.50013447	-0.08917015	0.47339135	0.56127095
0.6392807	-0.38256806	0.41579187	-0.16041356	0.5815691	0.5473177	0.15312512	0.08594571	-0.50319237	0.50002897	0.4095896	0.26518506	-0.38447568	0.34835875	-0.07989346	-0.4720219
-0.7050431	-0.23999086	-1.1131941	-1.0746863	-0.98805845	-0.8544	-0.6668423	-0.70352423	0.96434003	1.0290953	0.80067164	-0.89911425	-0.0119919	-0.67740864	-0.81897	-0.78693986
0.050993133	0.38122535	-0.13685904	0.30985397	-0.39258587	-0.07713238	0.20232427	-0.16376856	0.538305	-0.084767364	0.0468884	-0.22277088	0.5508687	-0.5694908	0.26226756	0.2741329
-0.19983259	0.14008023	-0.092877775	-0.06825716	-0.16936912	-0.17379887	0.013803805	0.08528098	0.060021546	-0.20597944	-0.12614286	0.122413106	0.17789204	0.09367483	0.195	0.18543576
0.57062113	-0.29865676	0.26333988	-0.03459948	0.36735132	0.44230506	0.22989379	0.05339776	-0.35073245	0.43317026	0.41234115	0.14845406	-0.15505332	0.2923044	0.047646813	-0.40877038
0.413426	-0.19032335	-0.030963508	-0.14443801	0.14745103	0.21606193	0.081614845	-0.078190155	-0.18412332	0.3624312	0.3603095	-0.09162424	-0.09882681	0.036611427	-0.062067844	-0.33932182
-0.5186468	0.22153309	-0.59652406	-0.28338712	-0.460284	-0.5046957	-0.3596844	-0.19245063	0.42637798	-0.26097098	-0.09923807	-0.47281334	0.2125112	-0.14651315	-0.19406086	0.28667414
0.6595155	-0.89286435	0.12913197	-0.88985115	0.7200997	0.598319	-0.3469376	-0.17834222	-0.83593005	0.85942435	0.6279962	0.19398136	-0.8127582	0.640823	-0.6757353	-0.83427066
-0.6408392	0.23969384	-0.57736254	-0.2947756	-0.49132288	-0.5790043	-0.3427595	0.09390679	0.3639249	-0.40627038	-0.40168235	-0.15869534	0.2845236	0.042956464	0.14442046	0.38661033
0.11041407	-0.23240653	0.7224304	-0.32137564	0.6328372	0.09988175	-0.32553136	0.741568	-0.5639414	-0.14081183	-0.23803273	0.6940875	-0.69821525	0.80031496	-0.5017631	-0.14125268
-0.2546201	-0.03368251	-0.46171293	-0.34619743	-0.22426556	-0.32584894	-0.37296996	-0.26345426	0.206369	0.07126837	0.16429895	-0.4015558	-0.11010685	-0.1765285	-0.33943766	0.035590485
0.41175088	-0.12515537	0.1254708	0.038715523	0.19632488	0.28740332	0.23877777	-0.005894029	-0.10429706	0.23857528	0.3051934	-0.031224044	0.035844736	0.081623584	0.030346237	-0.26225618
0.33518553	-0.24067108	-0.04255844	-0.16335241	0.2409568	0.0052384483	-0.2925355	-0.25529256	-0.13514538	0.42741463	0.47231567	-0.22762424	-0.3183835	-0.04896857	-0.45485678	-0.40372086
-0.37435073	0.103623025	-0.4842354	-0.34064746	-0.415772	-0.4452688	-0.26853397	-0.21960714	0.33008078	0.001472301	-0.07946292	-0.3625633	0.1872921	-0.17869316	-0.12742843	0.0756163
-0.18599725	0.4509043	-0.039717715	0.3593434	-0.39309192	-0.12390233	0.4263964	0.1800367	0.46139216	-0.35696533	-0.3457881	0.06428732	0.5337065	-0.23799595	0.53155226	0.40819272
0.37772536	-0.6009163	0.26200995	-0.5341843	0.53510356	0.42213175	0.0014682524	0.13328579	-0.5216356	0.40035585	0.297655	0.4567829	-0.4813901	0.66736287	-0.31547305	-0.48084912
0.8746575	0.34092903	0.82603216	0.6451109	0.52312154	0.7527123	0.70550025	0.5225002	-0.23256767	0.030804036	0.2348261	0.5631623	0.24784331	0.19195466	0.5700433	-0.033646375
0.51617044	-0.19525427	0.78059036	0.112287916	0.5694978	0.5269512	0.32133502	0.66731167	-0.51184285	0.1281348	0.016089488	0.82578945	-0.18719679	0.58509666	0.08849599	-0.26340136
0.13421823	0.42607042	0.24726151	0.48177105	-0.23724481	0.087687366	0.42832658	0.2570872	0.33387056	-0.43408182	-0.30656788	0.20473108	0.41288462	-0.089213245	0.48844865	0.3720517
-0.19577079	0.26256743	-0.1113899	-0.06230862	-0.16540027	-0.2775284	-0.1425669	0.03776194	0.27232966	-0.06994582	0.12035369	-0.17758971	0.03490125	-0.16370875	-0.22306502	0.10108912
-0.5206229	-0.34626094	-0.43332264	-0.92929065	0.0050828937	-0.815345	-0.90945214	-0.29587758	-0.011604299	0.2756992	0.3940629	-0.49713516	-0.85443425	-0.17321926	-1.121329	-0.44471917
0.3400503	-0.41272348	-0.20323776	-0.43821266	0.20463538	0.27697784	-0.16372122	-0.3147939	-0.29826432	0.46165317	0.3847288	-0.18320462	-0.23974927	0.08759424	-0.19978489	-0.38696262
0.13042502	-0.29238412	-0.37772468	-0.35002816	0.018928196	0.02123951	-0.1445275	-0.40406615	-0.058807544	0.44508946	0.4428299	-0.35461995	-0.17488682	-0.20814385	-0.26281986	-0.39456698
-0.11434489	-0.2901041	-0.5492597	-0.4690016	-0.15628111	-0.3211789	-0.46407527	-0.50849104	0.14772907	0.45348313	0.4056348	-0.5174525	-0.13213034	-0.20526043	-0.5157369	-0.28360966
-0.06783169	-0.012030325	-0.31991583	-0.3381823	-0.21489337	-0.22714661	-0.2138427	-0.31001082	0.08845216	0.17161193	0.20914823	-0.35947338	-0.05450905	-0.22557907	-0.25966904	-0.109152004
0.08873376	0.20373915	-0.0872599	0.11665177	-0.24130535	-0.04280568	0.17055711	-0.043229267	0.26311663	0.04113835	0.068446	-0.15875232	0.2947167	-0.15846978	0.20712635	0.078308955
-0.24342543	0.14253445	1.587147	-0.5989522	1.2811038	-0.30535442	-1.5231905	1.6774777	-1.2103369	-1.4272499	-1.4321871	1.6681483	-1.2861346	1.5738841	-1.3973742	0.42011738
0.8387056	0.7073697	0.30537984	0.6285154	-0.23216653	0.53089195	0.50360173	0.08002632	0.7158609	-0.08042806	0.37391666	-0.01091046	0.8436972	-0.63063323	0.4581754	0.3446182
0.5652375	-0.3216695	-0.095937684	-0.121654734	0.17469443	0.2858112	-0.033030126	-0.3721161	-0.07916877	0.6202534	0.667793	-0.37405774	-0.09830491	-0.2824766	-0.2110188	-0.45129815
-1.3314254	1.4246541	-1.2273988	0.75352573	-1.3046733	-1.1783515	-0.5476449	0.644131	1.2694666	-1.3947809	-1.2924199	-0.7814181	1.255141	-0.3846122	1.3554766	1.3762555
-0.066547394	-0.08802047	-0.28102946	-0.2712567	-0.110883206	-0.093697555	-0.18066475	-0.14997874	0.07774367	0.016941726	0.055146728	-0.1768523	0.023721453	0.032781653	-0.08723978	-0.08398875
-1.116443	1.0956862	-0.5759031	0.16384074	-0.7120701	-0.99642533	-0.6216542	0.80674833	0.6753671	-1.3166658	-1.1818826	0.20398512	0.52332264	0.23312244	0.5461021	1.0567652
0.3246516	-0.14027049	1.2433494	-0.2520531	0.99865675	0.3229922	-0.026776265	1.1670266	-0.9184739	-0.20112748	-0.33244905	1.3729964	-0.65552884	1.2599121	-0.38047397	-0.13907647
0.06803163	0.09445166	-0.14449497	0.016353521	-0.208999	-0.03491302	0.062061574	-0.18150516	0.13855119	0.08614805	0.2119473	-0.28058296	0.17326869	-0.1507733	0.009249459	0.00558481
0.38614142	-0.17418389	0.40050304	-0.11890305	0.5696001	0.22436352	-0.13872035	0.38182607	-0.4880028	0.11086834	0.050260257	0.36416417	-0.47426972	0.47526616	-0.28756142	-0.32714155
0.025478594	-0.15659904	-0.0009673271	-0.25534067	0.17029445	-0.057718698	-0.19910419	-0.007876574	-0.10546021	0.1843963	0.122310586	-0.05490618	-0.22460078	0.08893555	-0.33810633	-0.20546
-0.87921244	0.9969349	-0.8413594	0.23620297	-0.8386495	-0.8772857	-0.13102141	0.19822456	0.8715896	-0.9792883	-0.83670354	-0.38568372	0.81203943	-0.23857225	0.668331	0.92696327
0.12893057	0.29400656	-0.4261358	0.030780217	-0.6732791	-0.1665382	-0.07568341	-0.40063444	0.8501927	0.36184493	0.5028191	-0.5086977	0.28313085	-0.6845541	-0.13010493	-0.17256384
-0.706574	0.34348756	-0.68772465	-0.34340963	-0.602229	-0.72836405	-0.4146164	-0.08269504	0.57513976	-0.44111687	-0.3962798	-0.4206991	0.24173915	-0.17619823	-0.11881209	0.4538831
0.18089136	-0.015885549	0.29839885	0.08390666	0.23402166	0.18961005	0.14265636	0.26138753	-0.16474958	-0.004709052	-0.04877569	0.36271515	-0.14378166	0.2378452	0.043328587	-0.05112446
-0.19167165	-0.05620304	0.21336158	-0.5207451	0.37096798	-0.28208175	-0.50294536	0.3434664	-0.36123216	-0.18137847	-0.13663363	0.13694055	-0.79155153	0.5533828	-0.77364206	-0.12724294
0.02420121	-0.06156483	-0.08315711	-0.09375623	-0.0038333046	-0.037305288	0.0050751986	-0.060242437	-0.02701361	0.04133985	0.02777747	-0.039916363	0.061266255	-0.043678388	0.08626445	0.0008991627
0.41114596	-0.5936359	0.16234986	-0.650659	0.4638627	0.33092457	-0.28055507	-0.14627849	-0.5387929	0.48682612	0.40820155	0.08621992	-0.5705141	0.49487507	-0.50702786	-0.52275586
0.047431156	0.6179302	-0.06903218	0.24355981	-0.26951167	-0.06339055	0.16949207	0.05190004	0.43686858	-0.37219602	-0.043008316	-0.10022728	0.5403959	-0.36663175	0.28729588	0.50333834
0.6467106	0.64811945	0.28168234	0.64288986	-0.43403843	0.5066235	0.5941535	-0.029159397	0.6981382	0.016180314	0.40531158	-0.014282411	0.8544785	-0.6832455	0.56761056	0.32808772
-0.093810685	-0.068161234	-0.15610893	-0.23676118	-0.0016743277	-0.07462589	-0.09375803	0.081694834	-0.0026489447	0.008334891	-0.032939687	0.020560728	-0.08696637	0.2357022	-0.1592197	-0.07887325
0.2982789	-0.11898043	0.06513072	0.08718866	0.024499035	0.25318363	0.1702074	-0.22638813	-0.019820755	0.30600044	0.28976268	-0.1575833	0.0956017	-0.1616991	0.1045999	-0.20679447
-1.0778139	0.7076956	-1.1133757	-0.15105699	-0.83527267	-0.9274536	-0.7769509	0.30759746	0.70806587	-0.927617	-0.92326224	-0.5419362	0.667349	-0.048289593	0.5960047	0.8178641
0.9174179	0.9484128	1.0504903	1.0121119	0.3850353	0.8514993	0.84063023	0.8276135	0.19093871	-0.6464983	-0.20365168	0.96023095	0.6767814	0.046985716	0.98274684	0.8463114
-0.23253119	0.07807357	-0.2875969	-0.10299009	-0.2599673	-0.2438037	-0.083182335	-0.12166112	0.2138362	-0.049262986	0.029132232	-0.18749304	0.14119764	-0.17187007	-0.02399401	0.07902952
-0.22638254	0.053417057	0.040298387	-0.2527536	0.090349704	-0.22370136	-0.26754332	0.37594453	-0.08008084	-0.23480226	-0.28752205	0.22774275	-0.1442004	0.3659908	-0.2044703	0.1598315
-0.20465653	-0.018469125	-0.12027604	-0.33084714	-0.06212844	-0.19302239	-0.26111138	0.11781603	-0.040447906	-0.16360448	-0.17653604	0.064665906	-0.047913514	0.2812569	-0.15499555	0.07757228
-0.50961417	0.4912748	-0.01898927	0.05704968	-0.25671571	-0.48083892	-0.157514	0.41966152	0.28180897	-0.65943784	-0.65911496	0.23110761	0.1743045	0.2567136	0.057805426	0.53497905
-0.12568139	0.5471038	-0.08227348	0.27308807	-0.35602996	-0.29380554	0.12942795	0.004432188	0.5035365	-0.38645115	-0.099676274	-0.14225832	0.4326995	-0.28342682	0.114174426	0.41837758
0.09294395	-0.03742057	-0.096017785	-0.03567287	-0.0794048	0.13468933	0.16836937	-0.18096595	-0.036983483	0.18433946	0.09278371	-0.051192053	0.13320301	-0.13852109	0.18657005	-0.053205203
0.034430556	0.19667809	0.15754022	0.18510224	0.12123757	0.0825373	0.1974429	0.26754308	0.04131968	-0.251519	-0.13770197	0.23533094	0.09280881	0.14243464	0.20221299	0.21561679
0.68970776	0.73173565	0.30375847	0.76920104	-0.6256635	0.48851335	0.63086224	0.021988502	0.8134229	-0.06169639	0.31726828	0.016029365	0.81415904	-0.7433143	0.68679905	0.3507124
-0.053915165	0.26017126	0.43230653	0.20164213	0.15056045	-0.06201173	0.19649597	0.5705541	-0.088852376	-0.41667655	-0.44029814	0.55791056	-0.08179508	0.39661995	0.102352455	0.286853
-0.8043362	0.69941694	-0.69020665	-0.03037704	-0.7325747	-0.682275	-0.16449659	0.0037324561	0.7431428	-0.69050497	-0.7091991	-0.33707732	0.61686915	-0.37903062	0.4586901	0.7619352
-1.125197	1.1740226	-1.1089615	0.13684072	-1.1438862	-1.075499	-0.41749045	0.14978209	1.106982	-1.1620772	-1.0035888	-0.6711147	0.9588456	-0.3288325	0.8316053	1.1304328
0.055380758	0.40401232	0.054285787	0.33597836	-0.26938564	0.073324464	0.2733364	-0.00062271114	0.31789958	-0.1831567	0.009914902	-0.02433634	0.44984564	-0.32152027	0.38692743	0.3450818
-0.19833325	0.06347065	-0.4262516	-0.24534705	-0.2694058	-0.2940286	-0.17627436	-0.21766588	0.30247554	-0.0071836715	0.07631399	-0.2930708	0.12998441	-0.18101943	-0.14719833	0.104368694
0.2836529	0.22685355	-0.10553639	0.15910235	-0.18544194	0.12503518	0.23495495	-0.13538113	0.20958441	0.19614178	0.34982914	-0.1866705	0.3886035	-0.27957472	0.20539322	-0.052354727
0.9459719	-0.73737484	0.21897979	-0.63548005	0.6052703	0.7467122	0.06587503	-0.49669194	-0.576188	0.9716083	0.8363448	0.062131416	-0.5640492	0.41078594	-0.38329712	-0.8329623
-0.18995655	0.29876992	-0.367986	0.037450716	-0.44429955	-0.27232566	-0.019779226	-0.19951792	0.43274653	-0.08848459	0.12581393	-0.35448378	0.3037015	-0.33547875	0.032005835	0.2009996
-0.46327254	-0.1653556	-0.86142594	-0.72814965	-0.5171048	-0.43998316	-0.65691257	-0.3627162	0.2973753	0.037602417	-0.065942936	-0.55938214	0.16556051	-0.13887182	-0.11501583	-0.028361531
0.11293297	0.009452675	-0.23734643	-0.102064915	-0.20787229	0.068412445	0.029922917	-0.29285923	0.11121428	0.25498873	0.25410712	-0.23931023	0.13744879	-0.26779813	0.06368822	-0.10678909
0.2750172	-0.07151956	0.10793556	0.06709921	0.15381517	0.19297938	0.15923263	0.10427722	-0.09596836	0.101641536	0.047797136	0.13232495	0.09380881	0.07843602	0.14374565	-0.11937561
-0.5179421	0.17266692	-0.6018616	-0.1881875	-0.36044824	-0.3516198	-0.026099747	0.12954222	0.34713688	-0.3392598	-0.49127498	-0.08012522	0.3041462	0.04837123	0.44115558	0.30844003
0.4589687	-0.33586565	0.29934767	-0.21087478	0.5019534	0.3786341	0.098014176	0.10734128	-0.48677295	0.3309097	0.34302282	0.2502293	-0.39817172	0.41788962	-0.07120193	-0.33190995
-0.57777876	0.38668245	-0.58062536	-0.2782677	-0.47516075	-0.65055555	-0.41000164	-0.10543748	0.5094491	-0.40582445	-0.23179406	-0.30009943	0.2033633	-0.18272164	-0.18997312	0.38665396
0.26864123	-0.01672031	-0.010771267	0.11426446	-0.051083054	0.14943738	0.26916018	-0.1562299	0.029787883	0.25242266	0.20973988	-0.0951841	0.24281894	-0.07851244	0.24996881	-0.14029045
0.23280793	-0.2852305	0.1084068	-0.28176057	0.41743743	0.19994454	-0.025122916	0.112240665	-0.3725081	0.29411045	0.26108804	0.17759258	-0.3341183	0.39191794	-0.17694257	-0.30576903
-0.35576335	0.42144006	1.2292953	-0.31645635	1.0572753	-0.40772226	-0.8718242	1.3276451	-1.1007601	-1.404538	-1.2671348	1.2496674	-1.1043016	1.2461903	-1.1065098	0.7825145
0.16808483	-0.013225436	0.15338702	-0.058520444	0.16923648	0.049595065	-0.0128286425	0.038794126	-0.20624565	0.018162565	0.13927989	-0.0019403995	-0.21858427	0.07728448	-0.25528112	-0.12839834
0.7097921	0.21815024	0.39221692	0.5183391	-0.069355525	0.5254114	0.58031833	0.08771728	0.20033725	0.14725603	0.371625	0.16868804	0.55852485	-0.41056404	0.55249786	-0.02090825
0.25228113	-0.09774289	-0.22205365	-0.22540803	0.079463236	-0.06314304	-0.28756782	-0.22904728	0.016456854	0.35393578	0.50678694	-0.3338815	-0.33855274	-0.20837674	-0.4651039	-0.3995011
1.099556	0.44427133	0.79435337	0.76359653	0.29071987	0.8656229	0.8257861	0.43643826	0.052849054	0.12347954	0.4263489	0.5278472	0.6261272	-0.13081977	0.8064861	0.059150267
-0.4932921	0.7605609	-0.4278551	0.16083485	-0.5811966	-0.5640547	0.024695871	0.04385517	0.66533655	-0.6125683	-0.46179724	-0.10996989	0.55934006	-0.19983892	0.3931307	0.6538885
-0.26285943	0.18909729	-0.2392432	-0.0664918	-0.28217125	-0.31397864	-0.15633906	-0.05710574	0.23410037	-0.16989973	-0.045923077	-0.18171696	0.11548669	-0.12765686	-0.041237295	0.16261351
-0.011373781	0.20623071	-0.073663816	0.2493387	-0.29899138	0.06651415	0.31913495	-0.09176866	0.23956084	-0.009590265	-0.023035169	-0.08148569	0.38245898	-0.25136557	0.42719254	0.1808186
-0.39853328	0.11155274	-0.8462659	-0.41873595	-0.7131853	-0.5377164	-0.34489807	-0.72706646	0.6713136	0.26701307	0.32475132	-0.7947723	0.27692753	-0.74641705	-0.2139719	-0.008662229
0.14075382	-0.14322592	-0.14192916	-0.25650492	0.084516555	0.03654071	-0.1368404	-0.18433212	-0.14452295	0.19220346	0.3394001	-0.15526104	-0.1521944	-0.05344535	-0.30205634	-0.22531465
0.020001052	0.14600196	-0.48216033	-0.01671896	-0.4797924	-0.07550731	0.028618341	-0.41111404	0.48809814	0.22979352	0.39746964	-0.5136824	0.3769788	-0.5808198	-0.031211916	0.014978698
-0.102109455	-0.2545589	-0.65746576	-0.67399186	-0.3118301	-0.42549548	-0.47811094	-0.5102963	0.33749062	0.60292304	0.6783882	-0.636693	-0.2781257	-0.48893026	-0.63155246	-0.48978338
0.14157346	0.13261473	-0.22916454	-0.012904647	-0.25100243	-0.11145749	-0.07234036	-0.3592206	0.32509065	0.32981604	0.47829437	-0.42947185	0.18298991	-0.4649119	-0.19996525	-0.18237007
0.586068	-0.12911642	0.36167693	0.21931225	0.39092374	0.5456994	0.32033774	0.102551036	-0.33922487	0.20896415	0.31761655	0.17015193	0.035743285	0.13296394	0.1342455	-0.26899195
-0.23943838	0.090520486	-0.2302131	-0.22296247	-0.105285145	-0.4477811	-0.3720784	-0.050932046	0.17116633	0.028889006	0.15478805	-0.29921055	-0.19282621	-0.12480049	-0.51119244	-0.02036401
-1.0596379	1.2064444	-0.7844492	0.7657847	-0.9510814	-0.9901001	0.102671124	0.82059145	0.9939473	-1.2962415	-1.077035	-0.15662377	1.034499	0.0001878739	1.1226948	1.0689502
0.262775	-0.056834012	-0.11139948	0.02947716	0.030923553	0.22997819	0.16205372	-0.28485546	-0.005669668	0.26375183	0.31956524	-0.12933283	0.18999536	-0.20047137	0.13190271	-0.18579194
0.51816815	-0.673106	0.5484117	-0.87483215	0.9710056	0.44040436	-0.6835513	0.3444866	-0.9415133	0.36680222	0.2451153	0.48376623	-1.0208856	0.9561053	-1.045228	-0.62922364
-0.10921047	0.02408694	-0.0042486326	-0.031267755	-0.028155642	-0.08040475	0.009380626	0.14673412	0.060408276	-0.11616803	-0.15029395	0.07161375	0.0922183	0.1038726	0.04402712	0.13019326
0.8845323	-0.2663832	0.2780146	0.15395914	0.36429894	0.7181304	0.42206317	-0.088221006	-0.28773904	0.64180976	0.61922467	0.119277015	0.03178654	0.10338311	0.16067168	-0.46463707
1.0130206	0.7217866	0.8203818	1.0531224	-0.08936297	0.88205206	0.9984251	0.45095548	0.40427753	-0.30595288	0.12309483	0.6050958	0.9098299	-0.55834585	0.9705202	0.50370395
0.9624745	-0.92491245	0.43325093	-1.0178341	0.9226143	0.7837068	-0.4667516	-0.46723598	-0.9106455	1.0057667	0.86770064	0.29516527	-0.9615028	0.8846367	-0.9160314	-0.95385534
-0.60784954	0.61761326	-0.22018433	0.05306933	-0.4950017	-0.6695811	-0.25616938	0.08757358	0.5081839	-0.53849196	-0.35717663	-0.122735806	0.24413788	-0.1169399	-0.089812644	0.6098159
-0.21624297	-0.020020295	-0.4510498	-0.19933173	-0.32062972	-0.23245127	-0.21308348	-0.42080012	0.3042328	0.27276826	0.24720645	-0.4766302	0.09238232	-0.3206456	-0.21799894	-0.105681784
-0.56680816	0.56703115	-0.07837105	0.21185338	-0.34062922	-0.4855797	-0.025400547	0.48426932	0.36927873	-0.7409224	-0.6938766	0.31284526	0.24795723	0.18183483	0.35133716	0.6601355
0.27327207	0.008576076	0.05417451	0.05120192	0.040710315	0.12035418	0.05016832	-0.04280513	-0.06661146	0.16096774	0.2742292	-0.08978281	0.06301238	-0.038773343	0.020970149	-0.12210018
0.25097582	-0.42735404	-0.49773347	-0.5965473	0.098998085	0.06885844	-0.2808208	-0.55077875	-0.13378769	0.61414766	0.6052256	-0.5116663	-0.31294703	-0.14235713	-0.49128705	-0.46858183
-0.053806283	-0.061745584	-0.3631732	-0.2167643	-0.19916645	-0.120087005	-0.13536319	-0.2620486	0.15944794	0.19491823	0.28907487	-0.34195533	0.07392147	-0.2853664	-0.2541295	-0.09033406
0.7357475	-0.56185365	0.9231802	-0.3855207	0.8576442	0.6953139	0.04651023	0.5243	-0.7596396	0.42580986	0.44048998	0.92964184	-0.63901544	0.8169742	-0.21625029	-0.56748366
0.7957096	0.12473147	0.40806633	0.49247563	0.06848252	0.70350856	0.59239435	-0.03010597	0.014037837	0.2992179	0.52060425	0.059322894	0.43306106	-0.33928686	0.55527306	-0.11571507
0.09133398	-0.5020855	0.20844886	-0.8245748	0.49528778	0.20939508	-0.47133076	0.3677298	-0.58530545	0.26732185	0.013935985	0.57159334	-0.614113	0.88957244	-0.5909237	-0.3721718
0.6999111	0.7929452	0.38747305	0.9013117	-0.4797621	0.6212812	0.80406314	0.0464336	0.68508357	0.03281986	0.33684194	0.14227499	0.97833323	-0.6137168	0.93688846	0.33866784
1.0160685	0.71576244	0.84958476	1.02131	-0.14302692	0.92861253	0.9974411	0.36505935	0.51298124	-0.17105275	0.33082792	0.4555777	0.9573832	-0.6989035	1.0390806	0.41598186
1.0240415	-0.9557692	0.6188124	-0.7476618	1.0223509	0.89928603	0.047396723	0.006857397	-1.0335648	0.8482664	0.8398974	0.5809806	-0.91356504	0.8232148	-0.6393201	-0.9268982
0.23306784	0.53938746	0.08755707	0.6450662	-0.48335502	0.2142824	0.6466836	0.020493288	0.4976044	-0.24977015	0.0035514059	0.01345268	0.67991906	-0.5708915	0.7211566	0.35986182
0.11807246	0.27544814	0.18165116	0.29870135	-0.07721561	0.05739652	0.19584697	0.23833221	0.12793729	-0.17278133	-0.01502831	0.11059941	0.22494197	-0.061593305	0.16439694	0.17133604
0.33556834	0.41815636	0.37883964	0.51014405	-0.094909385	0.26316306	0.4750479	0.23378576	0.18176663	-0.126957	0.060470443	0.19335504	0.41923544	-0.16798005	0.40627837	0.20522398
0.7030661	0.1257825	0.24592763	0.37048405	0.15213571	0.5140097	0.40140465	-0.02287785	-0.010965025	0.30065998	0.44777024	0.00929376	0.32559347	-0.25667343	0.348577	-0.17638433
-0.25337216	0.076004595	-0.337822	-0.3493583	-0.16897306	-0.31546068	-0.37321112	-0.029836502	0.14303151	-0.13893273	-0.085667014	-0.17787243	0.007888242	0.028617375	-0.20610419	0.06445107
-0.39702553	-0.41251254	-0.65623885	-0.93024987	-0.21628128	-0.6415402	-0.84429026	-0.55535495	0.29257268	0.49986744	0.57782733	-0.6596107	-0.620182	-0.3192329	-0.9915769	-0.5645024
-0.7577712	0.44634467	-0.5175617	-0.25045335	-0.48461327	-0.7763962	-0.50842386	0.39795956	0.4091024	-0.7560709	-0.81857926	0.030236715	0.31807148	0.2454657	0.22477323	0.682405
-0.8339519	0.53019804	-0.56410897	-0.22921917	-0.6047523	-0.7276837	-0.41547212	0.23730938	0.56468743	-0.6455974	-0.5996864	-0.10661549	0.28295353	0.07516974	0.11888795	0.65407443
-0.9863595	0.77997166	-0.39149728	-0.4380179	-0.48068365	-0.9551721	-0.72668636	0.5057978	0.39754358	-1.1209602	-0.87244517	0.14372452	0.07560915	0.30464408	-0.096785	0.8594669
0.32668558	-0.06583872	0.24864887	0.08925411	0.22026487	0.26002306	0.15535238	0.057445414	-0.07841203	0.09511667	0.16420181	0.06611512	-0.043118123	0.00920437	-0.06609867	-0.07391183
-0.5386963	0.30353335	-0.41330558	-0.17096633	-0.30804005	-0.5000276	-0.306962	0.06985285	0.3003359	-0.42468017	-0.3156944	-0.16961981	0.19400494	-0.0007459137	-0.13893521	0.36210656
-0.14250596	0.31267977	-0.20727968	0.14398529	-0.38578236	-0.17057973	0.07657274	-0.18756355	0.4020724	-0.1752296	0.02832765	-0.2636226	0.32868513	-0.41345394	0.054404162	0.28330883
0.07949459	-0.11511062	-0.100199245	-0.2198839	0.050936792	0.14292796	0.030090721	-0.049666952	-0.081832305	0.16515088	0.15427358	-0.044899248	-0.06663387	0.086779244	0.017366054	-0.12229245
0.014675936	-0.16935545	-0.17426686	-0.21154022	0.019260481	-0.0106624635	-0.037648086	-0.14097285	-0.018823575	0.14393057	0.10198948	-0.11633961	-0.04604455	0.059120633	-0.09384941	-0.18170436
0.032166377	0.3315734	0.12483571	0.280907	-0.074871	-0.040831205	0.18111251	0.2993956	0.1416321	-0.24627466	-0.12388307	0.1715957	0.13450317	0.052744653	0.1791707	0.15450299
-0.6617961	0.23002449	-0.8246651	-0.34306082	-0.6160605	-0.65956897	-0.3572567	-0.32224888	0.49016392	-0.16560474	-0.28300965	-0.5360906	0.31848076	-0.27633438	-0.06393516	0.29712236
0.98663074	-0.33820546	0.47244656	0.071422085	0.5252391	0.8249371	0.4919098	-0.20031433	-0.3445942	0.67230713	0.7131768	0.12187486	0.009163567	0.11328163	0.21599586	-0.4982136
-0.41399202	-0.012016611	-0.2927552	-0.43873584	-0.11638523	-0.4293018	-0.5010263	0.016412783	0.052960087	-0.13410313	-0.1404243	-0.13328464	-0.25533357	0.24442302	-0.4378712	0.011089027
-0.3903438	-0.05868157	-0.599832	-0.70403284	-0.4208397	-0.7331607	-0.6537561	-0.4348295	0.57046103	0.5004145	0.5809848	-0.62123513	-0.33600372	-0.4697316	-0.7591246	-0.5030993
0.5641989	-0.09312645	0.25802687	0.17081165	0.15195274	0.39974326	0.39325505	0.0056915954	-0.056673724	0.2791883	0.3795271	0.07928738	0.18277588	-0.033446047	0.2665846	-0.23168674
0.43266398	-0.15481994	-0.17846648	-0.1134101	0.03361415	0.3317524	0.010440818	-0.33850172	-0.010427723	0.41624963	0.47907308	-0.20258465	0.025197865	-0.33293658	-0.05807594	-0.2586584
-1.0299445	-0.045584995	-0.979224	-0.9159758	-1.0136955	-1.1006143	-0.87184376	-0.6853749	0.9866781	0.6945634	0.7028381	-0.86015654	-0.17871049	-0.787963	-0.85603523	-0.4933281
0.4655869	-0.3638347	-0.23657347	-0.18955375	0.05507	0.32307	0.051633973	-0.49377537	-0.07581712	0.6715155	0.57137275	-0.3911895	0.005193908	-0.2712415	-0.18741342	-0.46385273
-0.5714815	0.34494424	-0.2691474	-0.043567896	-0.36555895	-0.51446265	-0.41194606	0.43277755	0.24586777	-0.5751298	-0.54556555	0.15820797	0.17102839	0.19887456	0.28838235	0.44317496
-0.035009738	-0.08117761	0.038587056	-0.48969883	0.2151403	-0.25058377	-0.45848528	0.094830416	-0.1834563	-0.014804349	0.061786737	0.024250168	-0.45217022	0.18314004	-0.81299925	-0.118577704
0.60037017	-0.07659831	0.4365838	0.2113151	0.35071766	0.54266995	0.42310974	0.11469425	-0.24098152	0.3167433	0.31285897	0.25246355	0.00764423	0.20363654	0.2174582	-0.2775591
-0.061194632	-0.0055165268	0.99917156	-0.32006225	0.7278072	-0.10237618	-0.663441	0.9832619	-0.69218016	-0.6018332	-0.6477315	1.0162083	-0.7672925	1.0130495	-0.80313534	0.09269746
-0.13412403	0.214521	-0.39679492	-0.12005727	-0.44120175	-0.25989494	-0.102161296	-0.28836715	0.4662162	0.17415738	0.2852906	-0.39372888	0.24470814	-0.42659104	-0.14770822	0.02928873
0.40935853	-0.3008144	0.31087992	-0.23245624	0.5552833	0.26129845	-0.069404885	0.10808785	-0.45823935	0.33526808	0.2595596	0.1624531	-0.39889646	0.42986393	-0.24601112	-0.38399276
0.3640748	-0.2666282	0.31524304	-0.08983634	0.32513857	0.30822802	0.086475335	0.18022998	-0.3700746	0.22856879	0.27900636	0.18994553	-0.19404517	0.2393978	-0.08579529	-0.2464353
-0.2729839	0.5749209	0.13472565	0.32205048	-0.17014997	-0.271466	0.13379124	0.39935374	0.36640453	-0.64951956	-0.39241272	0.1979827	0.18593164	0.07617697	0.15319262	0.57931954
-0.5541963	-0.24622805	-0.76805514	-0.8149852	-0.40200725	-0.6944199	-0.7615973	-0.61031383	0.31968576	0.38280442	0.4948965	-0.6832938	-0.42692903	-0.5029475	-0.8534971	-0.29560542
-0.14643887	0.036975026	0.08708338	-0.014505399	0.060724117	-0.047152992	-0.02709548	0.21933971	-0.053829845	-0.1716544	-0.2938663	0.2378582	-0.05083914	0.25784996	0.044572543	0.0925634
1.1657953	-1.0111318	0.54480624	-0.98233104	1.0194424	0.98767537	-0.21379459	-0.50673485	-1.0671245	1.1700766	1.0865817	0.31166688	-1.0089799	0.84765434	-0.88985413	-1.0899744
-0.5455943	0.29047263	-0.45629	-0.032250684	-0.44166732	-0.46201077	0.1024978	0.12832986	0.35396126	-0.45990807	-0.5571877	-0.08782255	0.43666673	-0.009537908	0.5315696	0.48014534
0.23025891	0.09613777	0.12614857	0.2885388	-0.09665591	0.25882944	0.32306623	-0.07885068	0.06447461	0.13378759	0.16074042	0.01460936	0.26625833	-0.1404317	0.37583524	-0.010009238
-0.37447327	0.44605803	0.3419102	0.1402659	-0.07452941	-0.32140315	0.11896041	0.7675879	0.0934416	-0.7057782	-0.674627	0.65431106	0.011819026	0.40426284	0.21632358	0.5181019
-0.19006962	0.0034005702	-0.26739272	-0.3131531	-0.12852052	-0.23241927	-0.30866477	-0.15907559	0.06793929	-0.012489685	0.13502333	-0.2184575	-0.08849733	-0.10888503	-0.39615962	-0.03600916
0.05063351	0.35913652	-0.071566746	0.3663041	-0.37031394	0.011680632	0.25429568	-0.083188735	0.4763906	-0.09035124	0.07907284	-0.14462912	0.37622318	-0.31482565	0.26073605	0.23554656
0.3997861	-0.30557832	0.9378075	-0.47103232	0.7723874	0.24253	-0.33662406	0.82338774	-0.75607294	0.049341694	-0.032912742	0.9390066	-0.80812776	1.0279384	-0.6251542	-0.26715606
-0.035643738	0.4292508	0.061387632	0.3203694	-0.18937044	-0.022346633	0.30505234	0.20170128	0.30550778	-0.34535992	-0.10403942	0.14769654	0.31757087	-0.14811496	0.3215802	0.29564992
-0.59605145	0.056185257	-0.5920614	-0.76136434	-0.33606383	-0.7604817	-0.7576338	-0.2174722	0.37091398	-0.039330233	0.10713008	-0.46436632	-0.40260157	-0.14274159	-0.85155636	0.06991313
0.7777306	-0.71868724	0.4273766	-0.79633564	0.7388254	0.60080534	-0.15375067	0.06573824	-0.7979038	0.6642362	0.6819864	0.43708977	-0.8353451	0.7702839	-0.6230101	-0.726633
0.0853513	-0.13074033	-0.20404008	-0.21198013	-0.037396595	0.06217881	0.12148137	-0.14097051	-0.06995381	0.1138102	0.08276326	-0.06298388	0.054616008	0.026771218	0.12717272	-0.1644809
0.8024399	0.78078145	1.1194115	0.9380742	0.19362198	0.8053696	0.83273274	0.89739335	0.100084335	-0.7606782	-0.57127905	0.9887877	0.5189452	0.11498848	0.88891566	0.6756105
0.20751186	-0.48252267	0.54022866	-0.8707179	0.66813064	0.25600293	-0.90583396	0.6059215	-0.7323457	0.06979985	-0.2359348	0.6929381	-0.90735066	0.9668778	-0.85394156	-0.31001183
0.4771137	0.044610508	-0.008784094	0.20233463	-0.102405466	0.29198104	0.3231394	-0.24122545	0.15277745	0.32976708	0.47218853	-0.25483432	0.28941754	-0.36388847	0.15205497	-0.14773892
0.5029028	0.19605722	-0.17292503	0.22147365	-0.27016973	0.19694753	0.15947926	-0.31360766	0.38966542	0.39938006	0.6190796	-0.35585818	0.40784264	-0.5971816	0.1130921	-0.14481258
0.4709075	0.1066229	-0.03787162	0.15347151	-0.00590385	0.36269075	0.29549673	0.022242103	0.09111269	0.15187834	0.35585827	-0.038988438	0.23186491	-0.2999724	0.27956504	-0.051195394
-0.43199536	0.0603844	-0.6057608	-0.6780526	-0.2990404	-0.6170435	-0.74068576	-0.33304426	0.27432463	0.17482476	0.30375335	-0.55095035	-0.21922274	-0.31101215	-0.75902385	-0.11413912
0.77235204	0.4796513	0.38945237	0.64097965	-0.16956082	0.56699634	0.6225301	0.07893496	0.48939314	0.17238338	0.49740434	0.031372618	0.6580965	-0.54060376	0.5893281	0.20999227
-0.8587021	0.67439383	-0.86996	-0.073870294	-0.8077599	-0.76058483	-0.30332452	0.059252262	0.6984357	-0.6962137	-0.67966104	-0.4075724	0.61047673	-0.14671193	0.4382593	0.7165168
0.06105096	-0.22373512	-0.1733474	-0.5302083	0.14250436	-0.11715507	-0.40442023	-0.052189216	-0.14285234	0.21432473	0.21034652	-0.1366076	-0.4497045	0.18726633	-0.60475445	-0.35651484
0.27012986	-0.12834132	0.101322815	-0.10721424	0.21931973	0.13014266	-0.049430355	0.0221402	-0.16437353	0.22142127	0.25203475	0.012582518	-0.24025714	0.06295639	-0.2479656	-0.3050075
-0.27730668	0.39501506	-0.05061278	0.37956265	-0.3854509	-0.19380438	0.23008177	0.22154576	0.42524466	-0.36499673	-0.2947453	0.024643578	0.35680154	-0.10576268	0.3389534	0.44438007
-0.29047385	-0.017884966	-0.7775834	-0.567866	-0.6508832	-0.5523929	-0.49016318	-0.66461307	0.69425076	0.6630539	0.6430274	-0.7170466	0.06934159	-0.53293365	-0.5812813	-0.42594466
-0.3010796	-0.05530805	-0.14846338	-0.4866561	-0.0299576	-0.3512838	-0.47417268	0.009251672	-0.03538603	-0.079144284	-0.13033251	-0.099544495	-0.22898623	0.158461	-0.3787507	0.016636396
-0.16372584	0.08651345	1.3421975	-0.73634297	1.1909082	-0.19527312	-1.2497885	1.5109707	-1.1177006	-1.4021152	-1.3532002	1.4513623	-1.1756595	1.3413209	-1.3975465	0.39662057
1.2073749	-1.1301103	0.11414532	-1.0310001	1.0273359	1.0348276	-0.5594918	-0.83119756	-1.0249442	1.2903538	1.2137997	-0.14599276	-1.0189793	0.77347946	-0.9192307	-1.1314757
-0.16096193	0.48519742	0.34549776	0.23944989	0.060245372	-0.10777104	0.14946376	0.50656265	0.0662526	-0.5862206	-0.4344243	0.45597807	0.072252356	0.2806959	0.16780521	0.40487352
0.45168373	0.13799822	0.27016672	0.2907857	0.21419887	0.34166005	0.33047575	0.092327155	-0.14423245	0.07887071	0.187656	0.111668445	0.13969344	0.04166294	0.17462929	-0.06378651
0.16102287	-0.042639907	-0.3067894	-0.10734264	-0.10028893	0.08307294	-0.12592354	-0.4122496	0.12411053	0.41710007	0.52438617	-0.4182372	0.056149863	-0.40169916	-0.16224025	-0.24799292
0.064968415	0.57427657	0.11971907	0.5961591	-0.42854574	0.04527583	0.6053068	0.087645456	0.5107711	-0.34066588	-0.17353499	0.06785761	0.75143063	-0.5381292	0.7547989	0.41177365
0.030801838	0.25716284	0.42419976	0.06868138	0.2921625	-0.07175489	-0.054100852	0.48332402	-0.15145418	-0.29383472	-0.19034202	0.42016423	-0.25326052	0.38880986	-0.07788389	0.17478171
0.9932204	-0.012476608	0.872886	0.3859964	0.28411946	0.87297267	0.7300341	0.4235279	-0.10147432	0.19357522	0.3536465	0.81926334	0.3003925	0.033327557	0.59966725	-0.099455476
-0.061295677	0.20541613	0.06991864	0.064037435	-0.09921253	-0.12322615	-0.01692624	0.14666198	0.119400814	-0.1912985	-0.12089735	-0.024211682	0.041013453	0.08348687	-0.05083334	0.13117638
-0.00086273375	-0.19891363	-0.599088	-0.40767	-0.3721359	-0.3277009	-0.5270948	-0.6102295	0.45992088	0.7015712	0.74117196	-0.67889917	-0.19945723	-0.61672926	-0.6844519	-0.5322452
-0.039091986	0.48365268	0.010355114	0.2945663	-0.20723657	-0.1716071	0.15813372	0.13586228	0.39864686	-0.40158325	-0.20638955	0.009354922	0.35100195	-0.105173215	0.15914604	0.42623186
0.11832799	-0.5387481	-0.49267998	-0.67922056	0.029568145	-0.14230144	-0.48244122	-0.5575629	-0.029712899	0.7234077	0.6904208	-0.5280315	-0.53519577	-0.31748375	-0.77732384	-0.6400632
-0.26450485	0.2929206	-0.124628544	0.10151818	-0.283508	-0.21471299	0.040907666	0.07257809	0.26862678	-0.28041446	-0.24803355	0.036970507	0.33348715	-0.0419401	0.19680287	0.27301252
0.8500796	0.09261551	0.33063594	0.34889215	0.13723974	0.6090261	0.44494542	0.025516836	-0.027177442	0.28805235	0.45789275	0.02991021	0.40457314	-0.24266571	0.36660743	-0.1445254
0.020403314	0.3036679	-0.105724916	0.07824107	-0.2621197	-0.13695218	-0.01062536	-0.07404504	0.3738713	-0.00084003835	0.16552745	-0.1626339	0.17214015	-0.24991676	-0.12891023	0.05760104
0.006870106	0.28732386	-0.21941674	0.092658356	-0.4622359	-0.26952004	-0.037203167	-0.2680255	0.61280155	0.13070546	0.30798703	-0.43062267	0.2661092	-0.4224801	-0.124130376	0.009565197
0.37240934	-0.04857136	0.022121765	-0.042155437	0.0629749	0.32286045	0.1522982	-0.15670504	-0.01792974	0.2665489	0.3017746	-0.098104306	0.01665951	-0.11302789	0.13964285	-0.15125965
0.49749961	-0.43928578	0.41048184	-0.203617	0.5001188	0.48995063	0.14943391	0.11878167	-0.5445253	0.40276578	0.30780134	0.38912052	-0.39363474	0.44467247	-0.07639748	-0.44253397
0.035870165	-0.03391886	0.49633023	-0.21482395	0.53894794	-0.008788788	-0.14358522	0.6500264	-0.5557857	-0.31403297	-0.26473296	0.6053892	-0.5714202	0.6904006	-0.46297994	-0.08436251
0.8445371	-0.54055446	0.18560994	-0.5215028	0.5701185	0.60737514	0.12603241	-0.23433004	-0.56730205	0.82510334	0.84324265	0.17876972	-0.48257512	0.49093816	-0.24539614	-0.6174286
-0.39260772	0.13510524	-0.2563378	-0.262019	-0.13719532	-0.40037122	-0.20722568	0.14067131	0.16149352	-0.23917182	-0.22777392	-0.01177543	0.007961183	0.14937615	-0.15274045	0.1797167
0.56030416	0.34758887	0.6564657	0.5497361	0.37606457	0.47881588	0.57007325	0.39322183	-0.1507221	-0.14017327	0.049451873	0.53725296	0.29641426	0.11778773	0.4997808	0.093625665
-0.06600241	0.39250988	0.24056607	0.28916654	-0.02433678	-0.053197406	0.26652485	0.39143464	0.13353184	-0.46128625	-0.29895392	0.316704	0.19051217	0.22379962	0.24873455	0.35792246
0.073198706	0.33906445	0.022763647	0.31224757	-0.23853952	0.030222496	0.3793169	0.13122556	0.29280746	-0.25965738	-0.082276344	0.13678618	0.36524692	-0.25600648	0.41057488	0.2455368
-0.3486607	0.19669488	0.9663541	-0.40434206	0.82397425	-0.32125884	-0.756926	1.1104364	-0.7972167	-0.8143198	-0.7731774	1.008276	-0.9135335	1.0207055	-0.86483663	0.34328192
0.59466815	0.29707408	0.34850365	0.4901206	-0.0014122041	0.47189948	0.40102807	0.04110615	0.14331302	0.0011178594	0.20881	0.06347508	0.3937494	-0.2777421	0.3454965	0.11722646
1.2025858	-0.9791653	0.55229306	-0.8997292	0.947672	0.94102544	-0.03956865	-0.42709237	-0.9357142	1.1462874	1.070361	0.36955264	-0.85280347	0.7669727	-0.6912504	-1.0382632
0.95129764	0.71197194	0.79933214	1.0301992	-0.2452183	0.9290344	0.9196646	0.3526044	0.5423644	-0.20647368	0.21882147	0.61368304	0.9892199	-0.75061786	1.0907867	0.514526
-0.93898594	0.5835282	-0.96506184	-0.4147047	-0.7507734	-0.8319197	-0.5768396	-0.11498948	0.741827	-0.6809528	-0.6014537	-0.5155423	0.5783332	-0.22355683	0.19193628	0.6353698
0.40667695	-0.19536316	-0.10417677	-0.08488107	0.076299	0.23067124	0.040931668	-0.29214436	-0.06453794	0.5403745	0.5244898	-0.2792048	0.03463494	-0.15387753	-0.10358957	-0.34063002
0.063704096	0.033458352	-0.4746741	-0.21685803	-0.46323904	-0.22530697	-0.28246677	-0.5192614	0.62646866	0.53133523	0.636599	-0.57821155	0.051958866	-0.57944894	-0.3854586	-0.37064382
0.73042554	-0.27225885	0.56263584	-0.08566509	0.47959855	0.6065126	0.43453947	0.15162916	-0.45345336	0.51469964	0.55548805	0.52537286	-0.10669901	0.410373	0.20692194	-0.3601313
0.117561646	-0.07279948	0.13236965	0.09634793	0.07987926	0.15035982	0.3618072	0.22874078	-0.016575545	0.0404434	-0.04272864	0.34701964	0.14131543	0.11126128	0.40229866	-0.05300869
0.03890992	0.46591836	0.009454584	0.37412956	-0.40435112	0.09442119	0.3222166	0.006881902	0.4349506	-0.24673608	0.007691125	-0.027627409	0.51535237	-0.45527357	0.43773034	0.33513278
0.1950663	0.29554114	0.1364958	0.4401621	-0.19386974	0.17540503	0.40606198	0.051429506	0.22707511	-0.0054971743	0.04537217	0.062015247	0.5138743	-0.17563368	0.5717976	0.20189026
-0.048678905	0.09774205	0.8426784	-0.21504441	0.6962619	-0.07313049	-0.3975923	0.84833086	-0.5452927	-0.5063097	-0.48246145	0.86350167	-0.7357528	0.88420117	-0.5699289	0.14577149
-0.5829003	-0.32943833	-0.423268	-0.98776627	-0.017185066	-0.7623562	-0.9261054	-0.1955397	0.040001947	0.2678742	0.37549183	-0.43884838	-0.7393896	-0.05759564	-1.0513686	-0.47594243
0.023973474	0.23657899	-0.024830699	0.18172894	-0.21485196	0.042486746	0.28321275	0.012672667	0.21160413	-0.06139908	0.0027406237	-0.060937382	0.33730692	-0.21890426	0.26143393	0.18717277
0.9322608	0.82594675	0.7944173	0.9541087	-0.38731351	0.8895091	0.86885804	0.50593364	0.80547166	-0.47219926	0.015827011	0.66697574	0.9013737	-0.84936094	1.03182	0.7010162
0.87068087	-0.74170285	0.6746069	-0.6558276	0.91573066	0.75502133	-0.07948429	0.12377703	-0.9035487	0.67361885	0.646574	0.49189076	-0.82189494	0.80861074	-0.5602681	-0.8007159
0.106944926	-0.37818712	-0.02678536	-0.7255057	0.29607636	0.053084817	-0.3861957	-0.016789027	-0.33417413	0.24527362	0.18197174	0.09339643	-0.3690956	0.40471643	-0.50442654	-0.3058977
-0.38188276	0.5000134	-0.29653063	0.15700117	-0.47568423	-0.40864098	-0.037393503	-0.080880575	0.54097927	-0.3992414	-0.20399171	-0.31611648	0.35956797	-0.3734134	0.096921	0.44366875
-0.29839486	-0.09243508	-0.535603	-0.44746894	-0.3702582	-0.39798123	-0.39335653	-0.46153358	0.30244398	0.2601895	0.22476904	-0.49743623	0.01486624	-0.24140829	-0.3424391	-0.1277399
-0.6536562	0.43016872	-0.45290413	-0.20752367	-0.5388287	-0.63652384	-0.460365	-0.07444704	0.47706553	-0.42161882	-0.28086653	-0.26270026	0.15075324	-0.11686079	-0.11915139	0.36490104
-0.14519632	0.12391406	-0.38476598	-0.070571676	-0.31780723	-0.20244524	-0.08639251	-0.26646078	0.24183665	0.024937535	0.17018706	-0.32335663	0.18076003	-0.3194972	-0.05282549	0.081102185
-0.683383	0.16670565	-0.23470229	-0.53624564	-0.21144478	-0.55875725	-0.70839053	0.35378635	0.17425597	-0.6001074	-0.5419351	0.16781618	-0.15380843	0.41944343	-0.32216915	0.40527257
1.1829268	-1.1296239	0.3884752	-1.0621822	0.99231064	0.96568245	-0.3920667	-0.7127144	-1.0218371	1.2258126	1.0855145	0.08550621	-0.9907167	0.7547345	-0.8876883	-1.0935559
0.3711338	0.08584692	-0.13749331	0.22234376	-0.24385534	0.22797176	0.15887028	-0.45380387	0.24694607	0.40715283	0.5781491	-0.3541427	0.33774823	-0.5889733	0.14868154	-0.13776207
-0.5109488	0.66028243	1.1802896	-0.14827597	1.0817783	-0.44556004	-1.190801	1.3824458	-1.0779285	-1.4829916	-1.3878486	1.2749047	-1.1101958	1.2606403	-1.130552	1.0115921
0.33664447	0.17184108	0.060483225	0.2232298	-0.059915747	0.26508513	0.23632266	-0.11018974	0.20011158	0.05672106	0.2246167	-0.043611348	0.37636733	-0.23733334	0.21495903	0.00216425
-0.40792233	0.7113828	-0.30069485	0.30723035	-0.46790308	-0.43757582	0.19986472	0.29612777	0.5186939	-0.69892055	-0.5847862	-0.040834617	0.64483786	-0.111908905	0.5998125	0.6444815
0.13296363	0.62225115	0.25624985	0.33960938	-0.063071966	-0.0017629636	0.19858035	0.21759494	0.17614251	-0.4367332	-0.08912652	0.10899539	0.22779165	-0.090636365	0.20700599	0.41736257
-0.7933645	-0.3263054	-1.0291111	-0.94816655	-0.8948602	-0.9097389	-0.7249779	-0.7734143	0.9536192	0.89182186	0.7279289	-0.9702242	-0.23564456	-0.66130054	-0.87368274	-0.70835143
0.92074883	0.37759376	0.23228957	0.5921901	-0.097350225	0.6436354	0.5085353	-0.23485087	0.52662253	0.5200562	0.7694646	-0.20467006	0.65646476	-0.8317784	0.3658127	-0.12886131
0.5206417	0.39468652	0.5143863	0.87088156	-0.06576263	0.41348672	0.8084254	0.4088416	0.15310135	-0.038319606	0.022064554	0.5156595	0.75189924	-0.33617923	0.9176026	0.19677722
0.35325712	-0.040567566	0.18148763	0.113787204	0.24495068	0.3109232	0.13967039	0.06532154	-0.17098139	0.11044541	0.19374238	0.068971045	-0.088510714	0.15365095	-0.015473201	-0.14656244
0.6612035	0.025926929	0.19215511	0.23050462	0.13640456	0.4199417	0.27885115	-0.15956144	0.042141844	0.3472971	0.4667261	-0.10102284	0.21490657	-0.24602415	0.117274806	-0.16893077
-0.44432163	0.62956077	-0.13792162	0.09129476	-0.36470962	-0.4054179	-0.06933722	0.27581722	0.37820855	-0.6966687	-0.5645515	0.06165004	0.20638287	-0.009574096	0.17060265	0.588688
-0.057929568	-0.013690959	-0.20561206	-0.12615955	-0.15810299	-0.08716454	-0.026987722	-0.071777575	0.12464561	0.024733705	-0.020034557	-0.20556052	0.083456345	-0.04480491	0.011773715	0.015874038
-0.18567249	0.094896875	-0.007446802	-0.11748106	0.023630567	-0.16428213	-0.0822481	0.23900554	0.018851845	-0.20470066	-0.189273	0.16747424	-0.0036628677	0.24528699	-0.037439507	0.08225569
0.88800126	-0.36743844	0.49867567	0.1380414	0.57821673	0.77143943	0.44710788	0.009878937	-0.43972418	0.56002057	0.50818276	0.2776415	-0.13724612	0.2068745	0.1473924	-0.46279198
0.44466034	-0.39099902	-0.16828482	-0.55312914	0.24202022	0.2423382	-0.20397441	-0.4849113	-0.23116836	0.7614486	0.722725	-0.24673076	-0.31633073	0.0190763	-0.34998575	-0.4679053
0.004954193	-0.47560552	-0.45969674	-0.72399265	0.08142531	-0.047049254	-0.5309567	-0.42422134	-0.20848002	0.5244755	0.49417338	-0.40619478	-0.3913276	-0.11206584	-0.6369664	-0.49833092
0.03429371	0.3774377	0.42129704	0.5097947	0.062914155	0.10875562	0.42265883	0.64937645	-0.056669146	-0.5750157	-0.47739893	0.64478236	0.23578797	0.37371024	0.48643786	0.4737728
0.37266892	0.09871257	0.51280093	0.23566051	0.27639735	0.3446266	0.40279257	0.39957815	-0.19246851	-0.061941106	0.023701385	0.41901526	0.11313552	0.3190018	0.25549567	0.0308853
0.08662624	0.057982836	-0.10822736	0.043057643	-0.1484882	-0.04027425	0.083447486	-0.0388196	0.10743903	0.15557799	0.08914724	-0.14379519	0.146602	-0.09489637	-0.01808611	-0.048893075
0.91104954	0.7189617	0.54199	0.90119267	-0.37648413	0.77933604	0.8586049	0.12873359	0.6283987	-0.16059537	0.23519145	0.19336055	0.9185976	-0.7716206	0.8814402	0.5213482
-0.66899335	0.66143304	-0.31596407	0.12952386	-0.4605597	-0.5405814	0.023365006	0.5025139	0.47648087	-0.79263693	-0.70909643	0.21791027	0.45667684	0.101964846	0.51263756	0.6922517
-0.4624633	0.1971747	-0.47412014	-0.3451518	-0.33757952	-0.4734584	-0.27836868	-0.19441447	0.28848273	-0.10049217	-0.10027013	-0.33069715	0.1611895	-0.16372955	-0.18084706	0.16650862
0.16698597	0.10650108	0.097144015	0.179456	-0.007265576	0.18373731	0.31569737	0.10332335	0.072012596	0.06161102	0.044033915	0.13355298	0.3231526	-0.015879551	0.30221063	0.025059374
0.94921356	-0.5639232	0.36939764	-0.22361897	0.68852216	0.79656017	0.2113986	-0.13023353	-0.56851006	0.6516823	0.64260745	0.15973717	-0.3670002	0.2039505	-0.105753966	-0.6068333
-0.45031714	0.67908776	-0.44608817	0.38591936	-0.6349341	-0.45587432	0.26247686	-0.055055983	0.6514356	-0.4814543	-0.42746863	-0.25239784	0.72701967	-0.3735149	0.6400035	0.6076367
-0.28144372	0.031143265	1.2237047	-0.88139445	1.0816289	-0.26048762	-1.3011718	1.4063262	-1.203539	-1.395332	-1.2431448	1.267812	-1.1714514	1.2328422	-1.4128482	0.46029407
-0.95855594	0.8484621	-0.060169168	-0.23202854	-0.28399792	-0.9440651	-0.7803665	0.7785682	0.3120699	-1.126188	-0.98533547	0.4237073	-0.1252827	0.5532294	-0.20855121	0.9320728
